1744 50
</s> 0.008005 0.008839 -0.007661 -0.006556 0.002733 0.006042 0.001882 0.000423 -0.007207 0.004437 -0.008713 0.002499 -0.001503 -0.001914 -0.006631 -0.003764 0.005159 0.006051 0.005938 0.003195 0.003090 -0.007605 -0.008192 0.009939 0.007603 0.006180 -0.001208 0.008031 -0.000990 0.001469 -0.000298 -0.005966 0.002625 -0.002675 -0.007651 0.009508 0.008759 -0.002190 -0.000452 0.001018 -0.007275 -0.008014 0.009109 0.000126 -0.005165 -0.006084 -0.006153 0.003394 0.000403 0.002662
face 0.462489 -0.862144 0.598347 -0.578146 0.245552 -0.044521 0.713030 -0.097426 -0.052705 -0.018782 0.966455 0.511056 -0.812432 -0.940852 -0.002510 1.294618 1.012063 0.108809 1.082703 0.682616 0.362470 0.751461 0.246372 -1.078632 -0.795755 -0.625735 -0.721879 -0.271706 0.215724 -0.101252 -0.100802 -0.499518 -0.688846 -0.099265 0.607598 0.896161 0.761377 0.145192 1.665806 -0.569452 -0.064706 0.566655 -0.502813 0.082958 0.864788 1.332994 -0.063010 1.009821 -0.022500 -1.171735
like 0.428180 -0.784657 0.549676 -0.522625 0.216432 -0.036666 0.636662 -0.095224 -0.059623 -0.018093 0.878607 0.464296 -0.736083 -0.849976 -0.006475 1.177297 0.906327 0.095885 0.986649 0.610605 0.308393 0.672416 0.232849 -0.973667 -0.710246 -0.579544 -0.642765 -0.245135 0.184408 -0.089610 -0.085369 -0.450806 -0.636752 -0.107302 0.554610 0.803271 0.680280 0.117591 1.488855 -0.519869 -0.064274 0.518058 -0.446263 0.071867 0.773165 1.212787 -0.058369 0.904312 -0.029635 -1.047309
use 0.469070 -0.873086 0.608544 -0.585831 0.248541 -0.029775 0.714851 -0.105079 -0.065313 -0.026035 0.975937 0.517028 -0.820548 -0.968203 0.002042 1.326400 1.031344 0.122936 1.110868 0.695000 0.348752 0.750410 0.251131 -1.096394 -0.801278 -0.647347 -0.735883 -0.289098 0.218601 -0.108613 -0.096350 -0.501271 -0.723314 -0.119500 0.626123 0.914047 0.776659 0.145888 1.698986 -0.579264 -0.068114 0.590848 -0.517145 0.080615 0.881860 1.362327 -0.065280 1.027315 -0.030528 -1.198135
oily 0.351224 -0.662967 0.465996 -0.443715 0.181255 -0.031828 0.545428 -0.083497 -0.048047 -0.006497 0.746103 0.387200 -0.617107 -0.729204 0.001452 0.998504 0.782005 0.092638 0.839618 0.523268 0.267380 0.579787 0.196944 -0.814154 -0.611827 -0.472145 -0.538735 -0.213886 0.151183 -0.062661 -0.073755 -0.385722 -0.537728 -0.084965 0.461516 0.677293 0.577670 0.097033 1.263338 -0.432432 -0.048179 0.440868 -0.381783 0.060240 0.665484 1.023480 -0.046394 0.778202 -0.026321 -0.900440
one 0.372963 -0.689426 0.471474 -0.463084 0.202832 -0.032844 0.562166 -0.088911 -0.035829 -0.018059 0.774353 0.407400 -0.646059 -0.754348 0.006008 1.029676 0.813019 0.092325 0.871025 0.537046 0.270534 0.600525 0.203307 -0.864127 -0.628463 -0.510621 -0.579894 -0.211997 0.161228 -0.082817 -0.069184 -0.389145 -0.555779 -0.078811 0.500387 0.717217 0.603920 0.103738 1.328285 -0.458553 -0.051535 0.460291 -0.395338 0.056255 0.696154 1.053915 -0.050860 0.800432 -0.026336 -0.929256
can 0.418143 -0.778851 0.550160 -0.522853 0.228016 -0.033481 0.645683 -0.099178 -0.052488 -0.009927 0.877649 0.479538 -0.740705 -0.872007 -0.005352 1.190453 0.928679 0.098007 1.002941 0.607343 0.306945 0.684517 0.230456 -0.987683 -0.723471 -0.581364 -0.646515 -0.245172 0.201646 -0.097183 -0.090597 -0.454213 -0.643183 -0.093124 0.564211 0.820781 0.683623 0.129879 1.523085 -0.517657 -0.051011 0.526029 -0.464496 0.076833 0.798846 1.208202 -0.055645 0.915299 -0.021943 -1.078735
really 0.378153 -0.676300 0.467754 -0.461075 0.182396 -0.036010 0.551975 -0.068617 -0.049716 -0.024093 0.759649 0.409678 -0.631416 -0.744258 0.007146 1.022851 0.792404 0.091273 0.856200 0.534924 0.281691 0.593670 0.191467 -0.852156 -0.629334 -0.501486 -0.560912 -0.225015 0.159913 -0.085589 -0.070653 -0.383747 -0.556955 -0.094214 0.487355 0.702625 0.589051 0.110318 1.302948 -0.443530 -0.053377 0.449955 -0.397113 0.065670 0.687481 1.056290 -0.050022 0.789691 -0.019972 -0.926912
white 0.306145 -0.583296 0.394928 -0.384873 0.172230 -0.019633 0.473919 -0.054581 -0.041660 -0.000968 0.656280 0.362363 -0.542518 -0.639653 -0.005679 0.886047 0.676830 0.089520 0.750095 0.468802 0.237125 0.510998 0.179605 -0.740613 -0.524509 -0.438978 -0.483754 -0.189300 0.156174 -0.074339 -0.068320 -0.339299 -0.473113 -0.063741 0.409510 0.591279 0.509326 0.104112 1.125021 -0.376780 -0.054301 0.386187 -0.335479 0.047151 0.595538 0.891034 -0.032865 0.671643 -0.012773 -0.786726
just 0.379996 -0.696128 0.491391 -0.467957 0.190578 -0.033137 0.584903 -0.072992 -0.041883 -0.016956 0.791748 0.423818 -0.659797 -0.769697 -0.007720 1.057318 0.836957 0.095660 0.900854 0.565162 0.289630 0.600148 0.216631 -0.877042 -0.661564 -0.512856 -0.595826 -0.231549 0.179526 -0.074732 -0.080468 -0.403852 -0.580132 -0.097431 0.507299 0.739153 0.626400 0.121215 1.364146 -0.455349 -0.051577 0.473145 -0.415429 0.064605 0.709008 1.094277 -0.045485 0.825582 -0.032241 -0.964092
greasy 0.338038 -0.605670 0.417955 -0.413554 0.179827 -0.019317 0.493223 -0.064069 -0.044428 -0.014537 0.688498 0.372115 -0.581575 -0.678329 0.003277 0.921810 0.726235 0.086885 0.768990 0.480233 0.250992 0.525140 0.186999 -0.772873 -0.553575 -0.447764 -0.516571 -0.196579 0.148942 -0.065103 -0.062605 -0.352586 -0.498054 -0.075419 0.430651 0.632446 0.543751 0.107501 1.185050 -0.412152 -0.045139 0.400878 -0.347444 0.061725 0.621453 0.949894 -0.040478 0.710753 -0.024684 -0.839346
using 0.396489 -0.737366 0.517971 -0.497659 0.213225 -0.039696 0.612722 -0.086807 -0.055862 -0.005662 0.824178 0.442830 -0.703001 -0.801994 -0.003926 1.101051 0.872699 0.103971 0.942534 0.585559 0.308180 0.639663 0.223635 -0.917866 -0.680447 -0.544570 -0.610462 -0.228875 0.173217 -0.083722 -0.081396 -0.422141 -0.600209 -0.086918 0.528474 0.771530 0.641666 0.117217 1.430383 -0.472869 -0.049494 0.494101 -0.438018 0.055094 0.753014 1.152933 -0.058319 0.861763 -0.028781 -1.016138
dry 0.340792 -0.608403 0.424331 -0.411138 0.168094 -0.027538 0.487182 -0.073203 -0.037238 -0.003712 0.673074 0.372202 -0.579771 -0.656468 0.001005 0.913534 0.713782 0.089269 0.758254 0.480376 0.248055 0.520415 0.186311 -0.756080 -0.547766 -0.445005 -0.504220 -0.188447 0.140068 -0.066463 -0.058008 -0.339738 -0.500425 -0.072264 0.438463 0.625497 0.536263 0.102180 1.176407 -0.397700 -0.046085 0.407749 -0.360379 0.055982 0.606956 0.946730 -0.047002 0.707555 -0.011414 -0.820602
good 0.344213 -0.616108 0.436250 -0.416968 0.175579 -0.019177 0.516438 -0.066330 -0.043977 -0.018670 0.688438 0.370863 -0.589006 -0.690074 -0.004219 0.938884 0.732594 0.076433 0.778744 0.496548 0.249943 0.543062 0.180359 -0.775656 -0.577550 -0.449909 -0.522245 -0.192048 0.148326 -0.063124 -0.075817 -0.360757 -0.496676 -0.074086 0.445421 0.645075 0.548502 0.101271 1.202954 -0.398685 -0.036928 0.419896 -0.363898 0.047453 0.615593 0.963067 -0.041314 0.732487 -0.025528 -0.838326
makeup 0.332266 -0.584773 0.417240 -0.400405 0.166036 -0.015804 0.478506 -0.079358 -0.035643 -0.010876 0.673875 0.355977 -0.557294 -0.647921 -0.001105 0.885429 0.702059 0.080009 0.752992 0.465363 0.251585 0.518940 0.183071 -0.734211 -0.550618 -0.435080 -0.487726 -0.196782 0.154014 -0.062199 -0.073744 -0.333522 -0.481247 -0.072262 0.416040 0.617278 0.520558 0.091550 1.144546 -0.385923 -0.045198 0.404198 -0.349525 0.048540 0.602372 0.930271 -0.032926 0.701809 -0.029497 -0.813824
used 0.378667 -0.707973 0.486097 -0.481522 0.201854 -0.037463 0.587371 -0.091033 -0.042818 -0.016177 0.797909 0.425899 -0.664734 -0.785994 -0.004064 1.065373 0.832535 0.089156 0.905131 0.557306 0.287351 0.622850 0.200957 -0.900007 -0.668659 -0.521727 -0.596229 -0.236663 0.177091 -0.089000 -0.084509 -0.408860 -0.572377 -0.097965 0.503506 0.746324 0.632006 0.124999 1.382011 -0.472137 -0.054592 0.479149 -0.407371 0.068873 0.721637 1.097984 -0.058469 0.834594 -0.033423 -0.966956
well 0.311595 -0.554511 0.389288 -0.384291 0.164343 -0.028309 0.451714 -0.070527 -0.030559 -0.002779 0.610030 0.329737 -0.518302 -0.598106 -0.001390 0.816917 0.647165 0.073425 0.698888 0.442155 0.218674 0.472504 0.160276 -0.692437 -0.512620 -0.414106 -0.457578 -0.185103 0.144086 -0.057193 -0.064309 -0.312109 -0.452945 -0.080430 0.400089 0.571591 0.487078 0.083013 1.060620 -0.354266 -0.042911 0.368238 -0.328457 0.040187 0.563303 0.845972 -0.036324 0.637054 -0.011522 -0.753059
even 0.366129 -0.653676 0.455998 -0.450178 0.177660 -0.030912 0.541207 -0.081377 -0.036441 -0.016851 0.734079 0.396112 -0.619301 -0.723346 0.001353 0.979459 0.763026 0.089572 0.825488 0.519040 0.273217 0.551485 0.199779 -0.820714 -0.598914 -0.482699 -0.540162 -0.200829 0.155492 -0.070915 -0.077481 -0.375303 -0.520280 -0.076361 0.453443 0.674905 0.567320 0.109839 1.255846 -0.432499 -0.048122 0.424470 -0.371086 0.060846 0.656762 1.013389 -0.033250 0.768822 -0.015928 -0.878779
also 0.384966 -0.697563 0.493361 -0.472010 0.201209 -0.032165 0.574364 -0.081106 -0.038036 -0.010590 0.783429 0.417573 -0.650346 -0.773621 -0.003145 1.049374 0.820450 0.087374 0.880250 0.545242 0.279958 0.609381 0.210615 -0.880418 -0.637599 -0.515358 -0.576578 -0.217941 0.170203 -0.085607 -0.075566 -0.406532 -0.561801 -0.085741 0.498248 0.717263 0.608246 0.116065 1.341215 -0.465277 -0.051287 0.459799 -0.412030 0.063706 0.696975 1.084371 -0.051011 0.823220 -0.030732 -0.953214
get 0.364461 -0.663678 0.452077 -0.448520 0.194738 -0.030043 0.552481 -0.072016 -0.050577 -0.004020 0.732840 0.390242 -0.616168 -0.732478 0.006246 1.002527 0.783318 0.088213 0.830742 0.518987 0.267766 0.562283 0.185754 -0.826373 -0.610406 -0.475244 -0.543580 -0.217170 0.170026 -0.076438 -0.065788 -0.386291 -0.533749 -0.084377 0.479292 0.687468 0.577213 0.116040 1.267665 -0.423265 -0.050920 0.440793 -0.380847 0.068108 0.669224 1.021355 -0.055240 0.778930 -0.021438 -0.896549
sun 0.289276 -0.548706 0.373455 -0.373709 0.160474 -0.019234 0.444749 -0.057867 -0.037156 -0.013550 0.602462 0.318676 -0.510601 -0.602430 -0.005117 0.805938 0.642472 0.083382 0.683296 0.435021 0.216686 0.460421 0.147146 -0.680409 -0.505834 -0.397193 -0.459776 -0.165038 0.125079 -0.058086 -0.051986 -0.315645 -0.450603 -0.063403 0.389849 0.568725 0.477488 0.092793 1.055996 -0.348165 -0.045331 0.358215 -0.311135 0.046583 0.540704 0.849373 -0.040198 0.646502 -0.010792 -0.731445
much 0.298836 -0.537021 0.371493 -0.349999 0.144642 -0.018495 0.425602 -0.052038 -0.042566 -0.008231 0.595255 0.313587 -0.494737 -0.582236 -0.010350 0.791048 0.621805 0.075783 0.667424 0.417252 0.225300 0.451547 0.165591 -0.668153 -0.498229 -0.382966 -0.449306 -0.171001 0.120701 -0.066507 -0.054541 -0.304395 -0.438896 -0.063584 0.387116 0.550605 0.455234 0.078816 1.030176 -0.354685 -0.033976 0.357996 -0.297831 0.049286 0.525293 0.827810 -0.044112 0.618101 -0.009411 -0.713608
day 0.331249 -0.622132 0.428740 -0.410576 0.178862 -0.018463 0.514828 -0.068857 -0.048694 -0.005940 0.683584 0.374095 -0.571051 -0.682057 0.007347 0.927390 0.717828 0.075938 0.774797 0.494154 0.253436 0.528849 0.188787 -0.779000 -0.571575 -0.445075 -0.516842 -0.199152 0.143806 -0.072602 -0.059950 -0.355723 -0.507164 -0.076194 0.441393 0.641199 0.541188 0.098651 1.183923 -0.398975 -0.034590 0.416429 -0.366611 0.052570 0.608687 0.959013 -0.049532 0.721161 -0.014667 -0.840213
foundation 0.324586 -0.610243 0.422235 -0.417592 0.169812 -0.015911 0.500537 -0.062922 -0.032415 -0.012256 0.671735 0.354657 -0.566796 -0.669671 -0.007866 0.911336 0.703700 0.073172 0.762077 0.477460 0.240589 0.512241 0.166515 -0.747576 -0.557102 -0.441635 -0.502911 -0.186528 0.137515 -0.075648 -0.071629 -0.344505 -0.482277 -0.074994 0.428921 0.628229 0.532462 0.087387 1.158437 -0.391694 -0.035304 0.406977 -0.346617 0.059485 0.607967 0.930141 -0.045412 0.712919 -0.015181 -0.815829
feel 0.315100 -0.565358 0.403881 -0.378510 0.152754 -0.022927 0.463089 -0.075776 -0.034542 -0.001721 0.637746 0.353168 -0.525962 -0.625185 0.006873 0.852543 0.681334 0.073993 0.732848 0.452818 0.226174 0.497995 0.172970 -0.728865 -0.526610 -0.430749 -0.482584 -0.182182 0.140495 -0.061001 -0.063809 -0.331968 -0.468627 -0.072650 0.421975 0.605349 0.502805 0.086565 1.124651 -0.375893 -0.033769 0.390977 -0.336387 0.043552 0.583120 0.892588 -0.040303 0.676627 -0.013684 -0.787895
love 0.367720 -0.661876 0.459495 -0.436766 0.192038 -0.034772 0.533281 -0.074627 -0.037576 -0.014363 0.734549 0.391405 -0.606440 -0.712699 0.005443 0.980419 0.767847 0.080361 0.826547 0.512029 0.271752 0.574173 0.186918 -0.822619 -0.594364 -0.482953 -0.547048 -0.202056 0.162562 -0.064991 -0.065187 -0.372658 -0.526056 -0.091359 0.462961 0.667369 0.577363 0.105115 1.267706 -0.428622 -0.048339 0.437550 -0.372134 0.064989 0.664963 1.011789 -0.034258 0.770294 -0.014700 -0.885934
make 0.241657 -0.429053 0.301275 -0.299716 0.126768 -0.009040 0.348353 -0.058965 -0.036665 -0.013799 0.485961 0.261827 -0.415457 -0.476538 -0.004201 0.648608 0.504848 0.053611 0.540687 0.351482 0.171282 0.372412 0.136476 -0.552289 -0.408818 -0.326075 -0.363196 -0.143161 0.101808 -0.056194 -0.044950 -0.246070 -0.363049 -0.050796 0.312174 0.456838 0.376679 0.064581 0.842911 -0.289590 -0.020575 0.286585 -0.246996 0.038882 0.435528 0.668153 -0.032407 0.515078 -0.022917 -0.601541
cast 0.211821 -0.397068 0.289437 -0.284899 0.122261 -0.012470 0.336912 -0.052664 -0.027393 -0.011521 0.456902 0.239844 -0.370320 -0.454497 -0.003162 0.608907 0.469141 0.063606 0.523747 0.311631 0.176613 0.352118 0.124884 -0.512993 -0.372961 -0.292735 -0.331357 -0.122522 0.089326 -0.036158 -0.057975 -0.226789 -0.328888 -0.042354 0.287902 0.423548 0.353599 0.071090 0.793957 -0.275870 -0.039900 0.278551 -0.224003 0.026040 0.416456 0.630892 -0.017594 0.463869 -0.010780 -0.562289
great 0.325005 -0.598279 0.419805 -0.408848 0.177057 -0.030464 0.479809 -0.067125 -0.045079 -0.016532 0.663466 0.349480 -0.571568 -0.658855 0.000818 0.893518 0.689995 0.089961 0.748397 0.457326 0.241100 0.525263 0.170308 -0.740432 -0.552020 -0.427294 -0.497794 -0.192343 0.143330 -0.066827 -0.065663 -0.337568 -0.489794 -0.067594 0.415785 0.609326 0.528268 0.104936 1.141403 -0.388939 -0.041604 0.393518 -0.356444 0.058213 0.589254 0.925782 -0.048947 0.693125 -0.013032 -0.817880
protection 0.229669 -0.431153 0.296728 -0.298079 0.116716 -0.013805 0.367870 -0.048253 -0.030612 -0.005458 0.502037 0.266006 -0.403759 -0.476463 -0.010508 0.654452 0.505130 0.061926 0.562171 0.339664 0.179533 0.382499 0.122970 -0.549383 -0.409529 -0.318987 -0.370841 -0.134228 0.103046 -0.052970 -0.046208 -0.263484 -0.359244 -0.054214 0.316071 0.459267 0.382352 0.066111 0.844585 -0.275902 -0.021251 0.285831 -0.253317 0.044627 0.447148 0.687642 -0.024823 0.519308 -0.011304 -0.606307
little 0.360494 -0.669086 0.472862 -0.458339 0.197589 -0.034919 0.546047 -0.072999 -0.046161 -0.009497 0.747428 0.408370 -0.632168 -0.734886 -0.011792 1.019966 0.786372 0.100972 0.846614 0.538204 0.266757 0.574252 0.190677 -0.852642 -0.625297 -0.491972 -0.561352 -0.213941 0.171206 -0.067153 -0.074281 -0.378009 -0.549140 -0.081051 0.477670 0.690319 0.589066 0.116358 1.300676 -0.449042 -0.045978 0.449378 -0.390222 0.058799 0.675930 1.040358 -0.050733 0.784581 -0.029610 -0.910061
wear 0.292644 -0.515754 0.374939 -0.363318 0.154634 -0.029177 0.425946 -0.064239 -0.033602 -0.012322 0.595583 0.324968 -0.501838 -0.586912 -0.000171 0.793293 0.621709 0.070103 0.661541 0.410122 0.217206 0.446919 0.164002 -0.668482 -0.488764 -0.390247 -0.438052 -0.166869 0.123959 -0.064767 -0.047981 -0.301046 -0.423390 -0.072338 0.375354 0.536112 0.452504 0.088909 1.027566 -0.339100 -0.046135 0.354817 -0.303706 0.051482 0.528789 0.823064 -0.046065 0.614510 -0.018043 -0.710311
bit 0.366265 -0.688524 0.472272 -0.472477 0.187656 -0.028407 0.572625 -0.070948 -0.044848 -0.005341 0.776605 0.413890 -0.642731 -0.762141 -0.000969 1.024580 0.807521 0.096575 0.879990 0.540523 0.286128 0.588884 0.200976 -0.870994 -0.630193 -0.507826 -0.581071 -0.218277 0.167566 -0.071279 -0.071534 -0.395035 -0.552861 -0.088766 0.486071 0.715299 0.607774 0.116580 1.335730 -0.451669 -0.046584 0.468323 -0.395312 0.050567 0.697917 1.072343 -0.047295 0.796755 -0.027976 -0.947329
time 0.328466 -0.605437 0.429779 -0.416017 0.165462 -0.016328 0.507887 -0.064883 -0.040654 -0.008547 0.687220 0.358072 -0.565576 -0.660407 0.004712 0.908854 0.702006 0.079186 0.761019 0.484460 0.243140 0.522920 0.185936 -0.756745 -0.566144 -0.438593 -0.499834 -0.185100 0.144723 -0.073574 -0.072223 -0.354079 -0.497780 -0.066839 0.438749 0.623173 0.532979 0.089362 1.165573 -0.388375 -0.048353 0.398842 -0.355382 0.046670 0.605734 0.939160 -0.037005 0.699404 -0.023034 -0.831278
sensitive 0.281435 -0.504397 0.353676 -0.338812 0.134402 -0.025588 0.414829 -0.049009 -0.028772 -0.001280 0.570269 0.313115 -0.481660 -0.559447 0.008589 0.766909 0.602065 0.078165 0.638880 0.398615 0.203236 0.449132 0.151633 -0.645550 -0.479364 -0.376015 -0.425097 -0.169291 0.129782 -0.056588 -0.063954 -0.289227 -0.417440 -0.069787 0.358004 0.519317 0.442043 0.089222 0.971672 -0.334359 -0.026275 0.344031 -0.296703 0.052178 0.506783 0.782233 -0.025148 0.596383 -0.024159 -0.690031
apply 0.381146 -0.686162 0.482458 -0.455295 0.196141 -0.037801 0.565379 -0.068684 -0.035786 -0.021132 0.773228 0.417420 -0.642533 -0.752674 -0.011046 1.029724 0.799836 0.086707 0.868613 0.528933 0.275463 0.584070 0.194413 -0.855909 -0.624329 -0.509465 -0.566664 -0.230506 0.168788 -0.067696 -0.081835 -0.385992 -0.546125 -0.091017 0.480604 0.705802 0.592636 0.110788 1.313511 -0.447329 -0.057205 0.455743 -0.404118 0.069913 0.684338 1.056546 -0.043641 0.788263 -0.025925 -0.930792
think 0.313559 -0.592979 0.400714 -0.402330 0.164000 -0.015722 0.485801 -0.065100 -0.033930 -0.010025 0.663483 0.355284 -0.551673 -0.653560 0.000497 0.882859 0.691814 0.088683 0.736171 0.453322 0.229681 0.516578 0.179561 -0.738211 -0.544505 -0.420675 -0.477197 -0.182356 0.142717 -0.074198 -0.060760 -0.331012 -0.473373 -0.064848 0.419086 0.607229 0.518110 0.089632 1.125130 -0.383357 -0.034064 0.397399 -0.338871 0.054207 0.594564 0.897322 -0.036975 0.683196 -0.025562 -0.801944
light 0.312965 -0.595309 0.403074 -0.409545 0.159160 -0.031006 0.489988 -0.065871 -0.029902 -0.016161 0.663671 0.367239 -0.557074 -0.648250 -0.005560 0.895992 0.697121 0.076183 0.741198 0.463712 0.238159 0.518430 0.170656 -0.754225 -0.538294 -0.425966 -0.497037 -0.182280 0.143751 -0.071509 -0.059167 -0.346423 -0.486247 -0.072484 0.432189 0.605991 0.529895 0.098132 1.153882 -0.395061 -0.043114 0.390260 -0.346872 0.056560 0.589583 0.927665 -0.035798 0.689076 -0.027180 -0.814704
look 0.256488 -0.473631 0.317436 -0.324822 0.135160 -0.010138 0.392762 -0.055982 -0.024090 -0.010863 0.532737 0.285589 -0.443621 -0.521991 -0.010949 0.704730 0.561149 0.074227 0.594269 0.362196 0.190787 0.407964 0.145473 -0.589360 -0.437328 -0.352057 -0.397288 -0.152519 0.118206 -0.051769 -0.059885 -0.269286 -0.393070 -0.068798 0.331077 0.496557 0.405007 0.081171 0.905268 -0.310822 -0.039415 0.320744 -0.272718 0.038549 0.466820 0.739039 -0.036066 0.546554 -0.007498 -0.640730
tried 0.328277 -0.610554 0.430112 -0.407634 0.170010 -0.034737 0.496927 -0.068788 -0.033692 -0.015631 0.678073 0.366818 -0.565007 -0.671080 0.003240 0.912903 0.703397 0.073856 0.768779 0.472575 0.242787 0.527272 0.184299 -0.766594 -0.570055 -0.449934 -0.495885 -0.193688 0.144051 -0.067257 -0.077008 -0.360223 -0.482842 -0.077386 0.430468 0.633248 0.540521 0.107120 1.169989 -0.393813 -0.052994 0.400790 -0.359526 0.053479 0.598809 0.933590 -0.048026 0.715777 -0.023593 -0.828130
moisturizer 0.335454 -0.615837 0.444302 -0.429610 0.175735 -0.032525 0.520302 -0.071708 -0.033698 -0.003623 0.703359 0.367179 -0.592848 -0.690636 -0.010031 0.926709 0.718831 0.084059 0.790553 0.481325 0.254991 0.541708 0.188788 -0.775217 -0.565296 -0.460201 -0.509380 -0.203043 0.160854 -0.080579 -0.074686 -0.363003 -0.497289 -0.070174 0.434303 0.652739 0.538805 0.093761 1.201730 -0.417423 -0.042044 0.424986 -0.353346 0.046411 0.625333 0.961517 -0.036119 0.735699 -0.017457 -0.855930
put 0.285569 -0.536327 0.382599 -0.365124 0.145417 -0.025253 0.449361 -0.054896 -0.041764 -0.020402 0.606703 0.314274 -0.502080 -0.596837 -0.000927 0.818639 0.638331 0.064423 0.687527 0.428353 0.220424 0.473907 0.159897 -0.664745 -0.496474 -0.399141 -0.442223 -0.177686 0.121674 -0.068717 -0.059827 -0.310088 -0.444963 -0.071035 0.377624 0.547623 0.461393 0.086587 1.047820 -0.357086 -0.029839 0.367578 -0.313568 0.053947 0.546201 0.834879 -0.040349 0.635275 -0.027357 -0.731746
find 0.305870 -0.554092 0.378805 -0.379379 0.158938 -0.019507 0.453481 -0.055363 -0.044966 -0.003301 0.621756 0.333573 -0.523911 -0.598757 0.004284 0.826626 0.646227 0.074134 0.693816 0.438671 0.232646 0.475527 0.160053 -0.695252 -0.508777 -0.404014 -0.460421 -0.182240 0.126918 -0.064720 -0.053085 -0.321849 -0.444208 -0.067199 0.389874 0.569206 0.487917 0.085831 1.056767 -0.354569 -0.039889 0.364011 -0.324202 0.047966 0.542650 0.858761 -0.031699 0.649320 -0.028702 -0.745120
break 0.340719 -0.625399 0.426219 -0.424223 0.175223 -0.025314 0.509613 -0.063010 -0.040933 -0.019386 0.690379 0.383515 -0.590206 -0.689570 0.000957 0.945428 0.726946 0.082080 0.797405 0.493970 0.257833 0.548995 0.192059 -0.774560 -0.586203 -0.456709 -0.510142 -0.195090 0.154479 -0.065665 -0.069296 -0.357436 -0.516168 -0.080960 0.440858 0.641175 0.538087 0.101097 1.201905 -0.418160 -0.050564 0.415213 -0.353392 0.048462 0.621911 0.974225 -0.039655 0.733568 -0.015768 -0.850616
still 0.301078 -0.554520 0.396544 -0.386608 0.160910 -0.016599 0.467783 -0.074976 -0.029902 -0.015633 0.638903 0.342655 -0.541331 -0.623022 -0.006681 0.855615 0.665452 0.084555 0.708720 0.446682 0.228628 0.484308 0.164807 -0.716700 -0.513464 -0.421315 -0.463447 -0.180402 0.142217 -0.066647 -0.061772 -0.316997 -0.462481 -0.082666 0.412413 0.577346 0.488961 0.098727 1.096730 -0.366534 -0.051785 0.385530 -0.326341 0.040849 0.571983 0.871970 -0.033403 0.658192 -0.012404 -0.774250
better 0.307910 -0.556245 0.381005 -0.358848 0.148525 -0.033026 0.440511 -0.069652 -0.026387 -0.012111 0.620346 0.336275 -0.521202 -0.594801 0.005331 0.829039 0.650344 0.068131 0.695269 0.431926 0.217084 0.479672 0.152202 -0.692243 -0.496041 -0.394552 -0.458488 -0.170471 0.123736 -0.068174 -0.068349 -0.314345 -0.454759 -0.063878 0.395239 0.567871 0.481168 0.083674 1.045690 -0.349786 -0.036283 0.368427 -0.326139 0.045095 0.537545 0.851915 -0.044485 0.638032 -0.018929 -0.739933
matte 0.288446 -0.531985 0.366475 -0.363766 0.143107 -0.029838 0.439221 -0.055358 -0.040705 0.000506 0.601045 0.316859 -0.491565 -0.576404 0.010812 0.801837 0.628725 0.062760 0.672128 0.422086 0.212586 0.454397 0.165750 -0.660693 -0.486733 -0.387705 -0.430744 -0.176683 0.130245 -0.045156 -0.057875 -0.308440 -0.434173 -0.065314 0.368656 0.555225 0.462652 0.077880 1.012866 -0.357706 -0.028668 0.337662 -0.311370 0.057459 0.521281 0.817963 -0.038118 0.609780 -0.020663 -0.718614
try 0.353710 -0.662966 0.465104 -0.446447 0.192378 -0.030488 0.550588 -0.078713 -0.035079 -0.007081 0.742283 0.396106 -0.631238 -0.735187 -0.008934 1.007397 0.783683 0.100732 0.849826 0.532326 0.267739 0.582207 0.200951 -0.827378 -0.620832 -0.483943 -0.550158 -0.219211 0.161969 -0.067558 -0.071760 -0.385092 -0.548388 -0.076897 0.484084 0.697589 0.593216 0.115048 1.278891 -0.441048 -0.046891 0.452373 -0.381672 0.052824 0.670569 1.036143 -0.056744 0.786099 -0.023663 -0.912092
tint 0.439622 -0.818831 0.558377 -0.549888 0.235313 -0.033412 0.679860 -0.083203 -0.057341 -0.010338 0.926839 0.503376 -0.778482 -0.901124 0.007118 1.228170 0.958809 0.116265 1.044118 0.641045 0.335717 0.717066 0.249164 -1.036926 -0.755911 -0.607235 -0.685516 -0.266697 0.213438 -0.092306 -0.082918 -0.462607 -0.668635 -0.098665 0.578032 0.852372 0.721618 0.125596 1.587603 -0.540431 -0.073497 0.538348 -0.466410 0.066445 0.826625 1.260779 -0.066600 0.947075 -0.021240 -1.113934
products 0.275968 -0.518089 0.347916 -0.348922 0.148893 -0.016645 0.413499 -0.049712 -0.029968 -0.012261 0.564483 0.300783 -0.476733 -0.554887 -0.009949 0.778145 0.588732 0.067605 0.650139 0.401665 0.207920 0.434972 0.153879 -0.647129 -0.470869 -0.367435 -0.430601 -0.158051 0.132888 -0.061346 -0.060791 -0.302427 -0.418676 -0.067044 0.369559 0.531639 0.441984 0.087291 0.993883 -0.334285 -0.035083 0.345573 -0.305463 0.046123 0.509818 0.786816 -0.035021 0.608520 -0.019247 -0.702310
acne 0.289522 -0.512954 0.363851 -0.355265 0.147370 -0.032124 0.431334 -0.052143 -0.025951 -0.022003 0.572599 0.312657 -0.479793 -0.569638 0.013526 0.788076 0.602415 0.073765 0.644806 0.418325 0.214876 0.456153 0.141057 -0.651109 -0.483180 -0.365222 -0.430038 -0.161540 0.122845 -0.049559 -0.066673 -0.300394 -0.412583 -0.066632 0.369581 0.536961 0.450760 0.093286 0.999009 -0.348905 -0.035493 0.339215 -0.310639 0.043450 0.517018 0.808989 -0.045215 0.614492 -0.005886 -0.704443
now 0.332055 -0.603268 0.423560 -0.417911 0.162688 -0.033815 0.496039 -0.078228 -0.045136 -0.007867 0.683828 0.358984 -0.566853 -0.656694 -0.004624 0.905684 0.713248 0.080532 0.760465 0.474910 0.251570 0.526236 0.171223 -0.763191 -0.555434 -0.442538 -0.507910 -0.188520 0.154913 -0.059276 -0.061835 -0.352735 -0.486611 -0.079252 0.430947 0.615069 0.534854 0.096029 1.169306 -0.386602 -0.044442 0.408856 -0.349310 0.058276 0.609206 0.942843 -0.041225 0.714600 -0.016214 -0.825325
first 0.363492 -0.664094 0.473078 -0.453391 0.182161 -0.037489 0.555203 -0.070428 -0.035711 -0.010822 0.745890 0.403016 -0.629011 -0.734048 -0.003459 1.011350 0.790131 0.099156 0.857746 0.536785 0.267136 0.582520 0.192310 -0.846668 -0.623003 -0.503370 -0.564747 -0.208164 0.174693 -0.079631 -0.083770 -0.383389 -0.549075 -0.075364 0.470702 0.699996 0.599535 0.112633 1.291782 -0.441614 -0.042879 0.443259 -0.380920 0.050942 0.674898 1.053050 -0.045044 0.776034 -0.016183 -0.919725
finish 0.291515 -0.519783 0.367362 -0.365829 0.151856 -0.028078 0.426633 -0.068923 -0.036728 -0.014709 0.585341 0.321855 -0.506427 -0.580009 -0.001067 0.805904 0.611854 0.065841 0.676330 0.405266 0.211718 0.455538 0.162265 -0.655685 -0.485966 -0.391983 -0.438747 -0.176858 0.128192 -0.051520 -0.050455 -0.297891 -0.418941 -0.054118 0.365096 0.543038 0.462499 0.085115 1.008306 -0.334193 -0.051446 0.338666 -0.299913 0.050644 0.532879 0.814623 -0.031271 0.622371 -0.010490 -0.726482
tube 0.352187 -0.639379 0.431442 -0.424017 0.181491 -0.017781 0.517984 -0.067460 -0.042788 -0.021839 0.719234 0.390312 -0.604207 -0.706412 0.004621 0.953495 0.746459 0.088527 0.813476 0.505623 0.251639 0.552274 0.182472 -0.803727 -0.588840 -0.464882 -0.521184 -0.199130 0.166357 -0.072332 -0.059944 -0.374954 -0.508075 -0.085343 0.449171 0.652695 0.562581 0.092849 1.232225 -0.420332 -0.044455 0.428794 -0.365569 0.053149 0.637754 0.975014 -0.051200 0.736571 -0.026772 -0.866181
go 0.290791 -0.553379 0.379548 -0.381937 0.148696 -0.026028 0.465676 -0.071585 -0.035718 -0.017303 0.618423 0.339186 -0.519620 -0.609474 -0.011154 0.829008 0.644928 0.069773 0.706291 0.444558 0.234659 0.477917 0.166161 -0.698007 -0.518316 -0.413395 -0.457354 -0.169386 0.130613 -0.066970 -0.054737 -0.325668 -0.449310 -0.068953 0.389999 0.573254 0.485499 0.083272 1.074952 -0.363042 -0.036162 0.363697 -0.319092 0.040171 0.567688 0.857225 -0.043808 0.655081 -0.015515 -0.755749
stuff 0.347525 -0.614665 0.434504 -0.414732 0.183626 -0.023752 0.503743 -0.076257 -0.047330 -0.012262 0.698746 0.374603 -0.581640 -0.673126 0.005661 0.941678 0.725498 0.084616 0.778650 0.477263 0.250720 0.541920 0.181821 -0.775729 -0.580330 -0.459355 -0.509170 -0.199709 0.153090 -0.074040 -0.069034 -0.365717 -0.511318 -0.085322 0.447482 0.636298 0.534843 0.108337 1.200039 -0.403406 -0.041429 0.402586 -0.351672 0.054176 0.619070 0.952844 -0.040875 0.728525 -0.014303 -0.843868
high 0.208806 -0.370510 0.251284 -0.241321 0.113732 -0.007467 0.304933 -0.052305 -0.030836 -0.000256 0.419986 0.223788 -0.355454 -0.397701 -0.003150 0.554080 0.434357 0.047636 0.466154 0.299091 0.159856 0.315594 0.099551 -0.465317 -0.340036 -0.271035 -0.312287 -0.118783 0.096501 -0.039118 -0.030971 -0.218504 -0.290031 -0.055392 0.256110 0.387275 0.331733 0.065992 0.704593 -0.236983 -0.035724 0.246530 -0.219527 0.037141 0.364156 0.563101 -0.022778 0.433743 -0.002376 -0.499916
without 0.312399 -0.554645 0.395707 -0.382641 0.161781 -0.025836 0.465058 -0.057309 -0.044365 -0.010423 0.633034 0.327239 -0.528823 -0.612037 0.001484 0.851217 0.666279 0.076294 0.705735 0.447127 0.233843 0.479337 0.165292 -0.700305 -0.511917 -0.407414 -0.460073 -0.178421 0.128827 -0.061029 -0.057290 -0.330843 -0.458599 -0.074158 0.387221 0.582213 0.489412 0.085528 1.080508 -0.367379 -0.048259 0.368283 -0.331733 0.053680 0.568382 0.860459 -0.032630 0.649848 -0.010980 -0.772772
eyes 0.347619 -0.638409 0.442354 -0.428656 0.184690 -0.020123 0.515171 -0.075806 -0.027463 -0.015916 0.715570 0.378328 -0.601731 -0.706707 0.005362 0.965166 0.755772 0.081890 0.794368 0.492375 0.268880 0.549944 0.178628 -0.787749 -0.593312 -0.464675 -0.534366 -0.207406 0.156408 -0.066499 -0.081450 -0.369026 -0.524339 -0.086439 0.447019 0.662140 0.554590 0.101812 1.232242 -0.410075 -0.039609 0.423886 -0.380066 0.064250 0.635550 0.982162 -0.046060 0.754558 -0.026352 -0.875388
cream 0.278429 -0.498725 0.354880 -0.331683 0.135465 -0.025401 0.416810 -0.048062 -0.024852 -0.014563 0.569343 0.303170 -0.477353 -0.548703 -0.004706 0.746479 0.575559 0.070073 0.632480 0.391569 0.201774 0.427568 0.139465 -0.618025 -0.460357 -0.371703 -0.405966 -0.154346 0.114393 -0.067137 -0.061871 -0.290447 -0.403805 -0.054406 0.353227 0.515854 0.435507 0.083252 0.972641 -0.327291 -0.037957 0.324096 -0.285692 0.049563 0.499292 0.775490 -0.044166 0.588190 -0.009050 -0.682698
works 0.279855 -0.517728 0.355372 -0.356532 0.136125 -0.020984 0.423769 -0.058687 -0.042684 -0.006290 0.593202 0.324938 -0.484670 -0.563899 0.001337 0.773380 0.609656 0.068321 0.662596 0.413860 0.212984 0.449674 0.145343 -0.648879 -0.490905 -0.388670 -0.431951 -0.173457 0.125532 -0.059173 -0.051228 -0.292138 -0.422091 -0.072839 0.377386 0.538497 0.457102 0.089299 1.016039 -0.342796 -0.031559 0.353952 -0.299592 0.046808 0.533321 0.816858 -0.035371 0.601144 -0.006643 -0.711312
feels 0.268786 -0.473982 0.337577 -0.320543 0.140691 -0.027878 0.384024 -0.063149 -0.022934 -0.002420 0.530319 0.284941 -0.440743 -0.526618 0.000560 0.709372 0.560957 0.057761 0.600666 0.363440 0.197550 0.408941 0.131438 -0.602853 -0.441113 -0.357681 -0.394229 -0.161141 0.117482 -0.047560 -0.060294 -0.283191 -0.393080 -0.066798 0.342038 0.482591 0.419341 0.073716 0.922537 -0.318315 -0.040106 0.313736 -0.271711 0.046319 0.486602 0.737787 -0.023339 0.554196 -0.015090 -0.643583
best 0.237689 -0.451557 0.316585 -0.318075 0.139168 -0.029563 0.370410 -0.054596 -0.023435 -0.009230 0.513695 0.273464 -0.422679 -0.494253 0.001220 0.691413 0.544739 0.070733 0.575461 0.358371 0.193823 0.397578 0.134573 -0.573449 -0.416438 -0.337240 -0.371027 -0.143258 0.119967 -0.045639 -0.052840 -0.267543 -0.377600 -0.054568 0.323991 0.471885 0.398501 0.064804 0.873157 -0.297435 -0.030846 0.300701 -0.257825 0.046032 0.452476 0.698497 -0.037885 0.525814 -0.005692 -0.629628
need 0.302176 -0.563510 0.390287 -0.381948 0.152186 -0.023984 0.455922 -0.065899 -0.043406 -0.015805 0.627800 0.339356 -0.526509 -0.618249 0.008344 0.848643 0.653246 0.081700 0.703152 0.438979 0.223186 0.483816 0.170943 -0.699656 -0.527114 -0.418987 -0.474092 -0.177488 0.138366 -0.067730 -0.064009 -0.323794 -0.458214 -0.062978 0.403279 0.576828 0.494668 0.086407 1.077808 -0.362953 -0.042539 0.381733 -0.320604 0.054304 0.563946 0.867316 -0.044120 0.655213 -0.020883 -0.755371
nice 0.323915 -0.582865 0.400378 -0.398863 0.171804 -0.016706 0.471810 -0.074909 -0.039296 -0.014715 0.643317 0.342736 -0.546307 -0.641173 -0.003038 0.871150 0.683194 0.085519 0.729158 0.443438 0.228922 0.496206 0.174222 -0.728889 -0.536596 -0.432427 -0.478001 -0.187952 0.132639 -0.063687 -0.065872 -0.330329 -0.461705 -0.077922 0.413843 0.604443 0.504955 0.097104 1.121525 -0.370640 -0.044470 0.382351 -0.327842 0.060180 0.571321 0.892935 -0.039991 0.681071 -0.009475 -0.791163
summer 0.339419 -0.606194 0.419831 -0.417503 0.163429 -0.022521 0.500499 -0.061172 -0.030981 -0.002301 0.672325 0.367886 -0.565588 -0.662950 0.000283 0.906181 0.713741 0.074510 0.761145 0.480439 0.237550 0.527710 0.169109 -0.751706 -0.556655 -0.444865 -0.509015 -0.188691 0.151004 -0.063824 -0.059192 -0.350870 -0.488921 -0.070265 0.426260 0.624513 0.530498 0.103240 1.168504 -0.404407 -0.051061 0.402820 -0.353342 0.047811 0.613925 0.948372 -0.035792 0.702266 -0.009688 -0.828326
since 0.264778 -0.473819 0.326245 -0.324250 0.122747 -0.017931 0.381945 -0.046576 -0.021601 -0.010059 0.529893 0.285366 -0.440707 -0.507294 -0.000580 0.706745 0.548319 0.072116 0.581410 0.370005 0.197590 0.402780 0.135027 -0.577704 -0.423690 -0.349628 -0.396608 -0.154683 0.115949 -0.060057 -0.055534 -0.273307 -0.387080 -0.053856 0.323402 0.480217 0.415484 0.077513 0.896297 -0.313717 -0.037633 0.309973 -0.276028 0.039060 0.469322 0.720851 -0.036719 0.550613 -0.013616 -0.631928
something 0.247432 -0.456671 0.323052 -0.313910 0.135078 -0.013103 0.362629 -0.057282 -0.031984 -0.011218 0.517192 0.269248 -0.422029 -0.506951 0.008452 0.688231 0.536760 0.060771 0.562589 0.367200 0.177236 0.383794 0.125409 -0.561387 -0.416943 -0.341301 -0.384381 -0.149008 0.104863 -0.052272 -0.058896 -0.252387 -0.376144 -0.051289 0.320297 0.461519 0.393550 0.079393 0.879833 -0.289955 -0.027188 0.299712 -0.256902 0.030662 0.448063 0.707494 -0.040695 0.523658 -0.018848 -0.621152
leave 0.157505 -0.271760 0.184864 -0.178032 0.079089 -0.014727 0.234804 -0.033583 -0.022618 -0.003588 0.304509 0.174946 -0.265688 -0.305291 0.006680 0.406568 0.319961 0.036092 0.354020 0.217297 0.120436 0.239312 0.074129 -0.352266 -0.256155 -0.194248 -0.224332 -0.097007 0.077524 -0.025790 -0.040831 -0.166899 -0.229235 -0.032334 0.187489 0.286137 0.243853 0.043852 0.529202 -0.180024 -0.030301 0.174735 -0.160760 0.020853 0.281092 0.418517 -0.015478 0.315051 -0.017929 -0.384890
tinted 0.265553 -0.498609 0.346221 -0.328289 0.143457 -0.016947 0.401244 -0.064691 -0.034868 -0.012142 0.550273 0.297479 -0.458330 -0.538229 -0.007308 0.746989 0.571572 0.057523 0.612353 0.388160 0.210659 0.427088 0.142008 -0.608025 -0.453479 -0.360083 -0.400082 -0.163319 0.118048 -0.062032 -0.058748 -0.293486 -0.391190 -0.064499 0.358972 0.500067 0.427526 0.073751 0.958446 -0.319370 -0.027885 0.326224 -0.288662 0.051962 0.496866 0.772326 -0.032172 0.573520 -0.017980 -0.674110
work 0.219212 -0.414127 0.285701 -0.280263 0.110977 -0.023794 0.339599 -0.046838 -0.022217 -0.004130 0.455684 0.253538 -0.394462 -0.455066 0.003333 0.616529 0.486906 0.064492 0.525399 0.318260 0.158544 0.351773 0.123232 -0.515469 -0.369548 -0.300029 -0.339865 -0.138435 0.101849 -0.048124 -0.042969 -0.239626 -0.324940 -0.059259 0.286543 0.433124 0.362160 0.068705 0.796451 -0.273120 -0.038997 0.270434 -0.243034 0.036245 0.407031 0.642330 -0.029233 0.479621 -0.015527 -0.549115
got 0.270397 -0.494912 0.348686 -0.328980 0.137746 -0.031932 0.394957 -0.060201 -0.031304 -0.018725 0.547002 0.297483 -0.454878 -0.546652 -0.007549 0.736245 0.587982 0.064910 0.625602 0.386240 0.194648 0.432326 0.152366 -0.619164 -0.461379 -0.352985 -0.414474 -0.153670 0.115946 -0.058732 -0.056185 -0.289984 -0.404024 -0.069161 0.343838 0.499845 0.426597 0.080647 0.954900 -0.322455 -0.034744 0.335928 -0.287974 0.035360 0.492104 0.771836 -0.025626 0.582295 -0.010846 -0.668817
powder 0.291415 -0.539953 0.380390 -0.374993 0.150469 -0.017369 0.442430 -0.071915 -0.030928 -0.002410 0.602225 0.336404 -0.501504 -0.589128 -0.006814 0.823614 0.648436 0.082678 0.680237 0.434424 0.231066 0.457413 0.164325 -0.683379 -0.507953 -0.410410 -0.447143 -0.176413 0.128874 -0.058538 -0.056992 -0.310190 -0.444948 -0.059439 0.394176 0.560320 0.474231 0.085749 1.047185 -0.366060 -0.035762 0.361114 -0.327469 0.045905 0.537153 0.850750 -0.046280 0.629462 -0.020494 -0.730913
chemical 0.302980 -0.558723 0.399280 -0.375617 0.166389 -0.017187 0.463844 -0.071122 -0.043618 -0.005810 0.632935 0.347796 -0.533800 -0.623250 -0.010533 0.860244 0.665709 0.076311 0.727198 0.442044 0.233332 0.499230 0.162047 -0.719678 -0.534799 -0.415451 -0.466818 -0.188957 0.130177 -0.062398 -0.067804 -0.330697 -0.471408 -0.064462 0.396828 0.596606 0.505924 0.085275 1.092074 -0.369108 -0.037227 0.386722 -0.324338 0.044520 0.569098 0.875872 -0.043088 0.669619 -0.029632 -0.779418
bought 0.276900 -0.522641 0.371941 -0.355249 0.147827 -0.025086 0.425016 -0.056601 -0.042258 -0.004521 0.580337 0.317063 -0.485705 -0.586130 -0.007957 0.792200 0.626178 0.070815 0.660736 0.407782 0.217982 0.453607 0.149638 -0.650977 -0.479566 -0.375497 -0.435009 -0.164164 0.121381 -0.066736 -0.055098 -0.295162 -0.422917 -0.075057 0.368567 0.552640 0.453224 0.092452 1.010472 -0.344827 -0.028943 0.355949 -0.312788 0.044831 0.539124 0.806200 -0.040024 0.607878 -0.018129 -0.722696
way 0.242022 -0.424696 0.307373 -0.294100 0.132274 -0.015961 0.357016 -0.058454 -0.025948 0.000280 0.488731 0.270695 -0.413467 -0.480403 -0.009295 0.648643 0.512645 0.053680 0.550104 0.343117 0.175330 0.370242 0.124166 -0.537225 -0.407428 -0.326060 -0.360639 -0.140128 0.108054 -0.049202 -0.048622 -0.259872 -0.365081 -0.052969 0.306853 0.459007 0.386093 0.062964 0.840938 -0.286144 -0.024059 0.282841 -0.255179 0.046201 0.429506 0.680771 -0.023214 0.506065 -0.004526 -0.599141
leaves 0.226035 -0.416742 0.296524 -0.283284 0.116443 -0.016357 0.344909 -0.042831 -0.020018 -0.017591 0.477460 0.259372 -0.406062 -0.462920 -0.000712 0.627815 0.491243 0.060009 0.533019 0.332994 0.168028 0.358208 0.116674 -0.537648 -0.379152 -0.316288 -0.343662 -0.130584 0.097555 -0.038829 -0.047783 -0.250978 -0.338905 -0.062405 0.288503 0.445568 0.375409 0.065583 0.815685 -0.286057 -0.030025 0.268836 -0.251888 0.043390 0.417917 0.647691 -0.018567 0.488728 -0.022474 -0.570600
looking 0.248214 -0.457959 0.324776 -0.320393 0.130038 -0.014486 0.390771 -0.049949 -0.025453 -0.007235 0.512085 0.283658 -0.446611 -0.503158 0.000497 0.702113 0.540928 0.052779 0.593728 0.366065 0.180647 0.396675 0.146196 -0.584841 -0.426391 -0.339296 -0.375781 -0.153450 0.116218 -0.051979 -0.057494 -0.277496 -0.383540 -0.054028 0.329712 0.478683 0.410243 0.070980 0.895756 -0.300176 -0.030606 0.306548 -0.265217 0.048428 0.469035 0.716619 -0.039358 0.546351 -0.007582 -0.621347
years 0.217328 -0.399927 0.272628 -0.273129 0.116350 -0.007752 0.332888 -0.051419 -0.031189 -0.006122 0.433302 0.232192 -0.378847 -0.425968 -0.007137 0.589974 0.468736 0.046887 0.488700 0.314295 0.165228 0.345426 0.117722 -0.483926 -0.357490 -0.291073 -0.330404 -0.120718 0.089983 -0.054423 -0.045102 -0.223449 -0.312951 -0.043444 0.287816 0.414664 0.341031 0.071475 0.754880 -0.253759 -0.035045 0.252514 -0.217351 0.025757 0.390240 0.611379 -0.032737 0.453213 -0.004037 -0.543554
prone 0.239138 -0.429594 0.306564 -0.296467 0.125379 -0.024968 0.355719 -0.059899 -0.038445 -0.006117 0.496744 0.263812 -0.403706 -0.491333 0.000806 0.670246 0.510292 0.059267 0.549286 0.355943 0.164413 0.388238 0.129372 -0.555208 -0.398604 -0.315687 -0.365969 -0.129326 0.103847 -0.046254 -0.049465 -0.256903 -0.364885 -0.049569 0.322892 0.446515 0.390573 0.069072 0.845684 -0.295689 -0.019908 0.298753 -0.265312 0.040808 0.440723 0.678882 -0.021205 0.512230 -0.004693 -0.587066
shiny 0.224773 -0.392294 0.276792 -0.255991 0.109419 -0.018754 0.322988 -0.034301 -0.018378 -0.008573 0.438297 0.245102 -0.367652 -0.421861 0.006394 0.591148 0.463659 0.054735 0.505879 0.304684 0.157697 0.340247 0.120619 -0.490594 -0.355022 -0.281667 -0.331097 -0.121518 0.102870 -0.050373 -0.041667 -0.234631 -0.325127 -0.052297 0.277118 0.411392 0.333538 0.072341 0.753822 -0.264173 -0.020261 0.258454 -0.222969 0.025389 0.386864 0.613639 -0.028601 0.452201 -0.019290 -0.523907
buy 0.219497 -0.423433 0.292088 -0.283894 0.121537 -0.027586 0.333468 -0.048571 -0.015850 -0.004841 0.461413 0.241858 -0.395866 -0.467072 0.008322 0.624752 0.482426 0.054769 0.517909 0.332728 0.167682 0.353656 0.122283 -0.517700 -0.394155 -0.297427 -0.344638 -0.142510 0.094677 -0.044724 -0.052055 -0.234037 -0.339510 -0.048294 0.297421 0.427916 0.369515 0.066793 0.793839 -0.275590 -0.021641 0.278970 -0.247524 0.036219 0.409746 0.654726 -0.037317 0.495976 -0.021540 -0.558939
never 0.319773 -0.563988 0.400140 -0.378917 0.164951 -0.029900 0.468647 -0.064105 -0.038478 -0.010480 0.654033 0.353966 -0.535412 -0.623999 0.004814 0.856577 0.681725 0.082037 0.730864 0.453958 0.233420 0.496848 0.173284 -0.727040 -0.524029 -0.430064 -0.469027 -0.183300 0.151030 -0.060613 -0.055447 -0.338420 -0.476644 -0.073426 0.409345 0.594540 0.501456 0.086265 1.113456 -0.384944 -0.037433 0.379030 -0.326940 0.060752 0.585428 0.887168 -0.044129 0.667113 -0.010798 -0.784638
price 0.267588 -0.473837 0.330332 -0.332582 0.137871 -0.019478 0.400941 -0.061938 -0.025497 -0.018334 0.532193 0.293460 -0.441245 -0.527817 0.005686 0.711692 0.563098 0.073636 0.606715 0.370666 0.189086 0.412802 0.144306 -0.597551 -0.436356 -0.344035 -0.395232 -0.161169 0.123355 -0.058308 -0.051370 -0.278914 -0.395932 -0.061145 0.331460 0.500933 0.420649 0.082519 0.923632 -0.314085 -0.030271 0.314065 -0.278029 0.035815 0.487680 0.735693 -0.039618 0.557352 -0.004685 -0.657017
know 0.291741 -0.527406 0.376642 -0.359050 0.143485 -0.014467 0.441162 -0.060785 -0.028054 -0.018199 0.593053 0.312177 -0.496590 -0.582376 -0.004168 0.792368 0.620913 0.082383 0.676776 0.424865 0.224688 0.452462 0.162410 -0.669940 -0.485455 -0.380702 -0.453073 -0.179017 0.122434 -0.053373 -0.066627 -0.315176 -0.425241 -0.068183 0.377659 0.550483 0.462355 0.091366 1.032421 -0.338537 -0.035240 0.355738 -0.301266 0.053440 0.533022 0.821214 -0.036295 0.623989 -0.008660 -0.728466
texture 0.237569 -0.416408 0.300119 -0.275830 0.124208 -0.022447 0.355723 -0.038053 -0.035605 -0.006264 0.473216 0.255479 -0.394388 -0.472837 0.009516 0.636234 0.484556 0.052321 0.539179 0.336851 0.177158 0.361702 0.133924 -0.535680 -0.385213 -0.313700 -0.346454 -0.143986 0.114151 -0.042457 -0.053721 -0.249442 -0.352810 -0.056016 0.293266 0.429135 0.376770 0.078879 0.814231 -0.281091 -0.034326 0.288333 -0.242099 0.041939 0.432578 0.656044 -0.028658 0.482073 -0.009211 -0.565207
though 0.283935 -0.505165 0.338923 -0.338485 0.150056 -0.028131 0.407148 -0.054526 -0.033127 -0.014293 0.558319 0.308229 -0.479256 -0.553948 -0.005104 0.757768 0.578281 0.071548 0.623691 0.391346 0.208398 0.440623 0.149007 -0.634177 -0.467017 -0.377453 -0.416115 -0.165535 0.124310 -0.052038 -0.054637 -0.293332 -0.400838 -0.055256 0.351730 0.512974 0.435354 0.078782 0.958499 -0.324248 -0.029862 0.339833 -0.280033 0.047356 0.501166 0.776544 -0.031074 0.574291 -0.012166 -0.679969
lot 0.280048 -0.506713 0.360632 -0.339871 0.154190 -0.028825 0.421658 -0.053892 -0.024633 -0.012303 0.574370 0.314672 -0.486674 -0.568137 -0.011214 0.782440 0.606298 0.061553 0.649900 0.398153 0.200443 0.446440 0.155980 -0.641492 -0.476091 -0.379684 -0.429919 -0.169500 0.135234 -0.067043 -0.052508 -0.290143 -0.415615 -0.055719 0.376647 0.524811 0.446885 0.093015 0.984798 -0.333634 -0.033249 0.345281 -0.298015 0.038408 0.511994 0.796049 -0.027656 0.597610 -0.007958 -0.698752
found 0.199255 -0.387215 0.272166 -0.259741 0.102861 -0.009457 0.303450 -0.035499 -0.016739 -0.009874 0.420832 0.218187 -0.356768 -0.419590 -0.008161 0.573511 0.451042 0.056821 0.483733 0.297803 0.152024 0.316047 0.104617 -0.474092 -0.351862 -0.270870 -0.318318 -0.126630 0.088854 -0.034916 -0.044540 -0.208324 -0.309722 -0.053434 0.278074 0.396812 0.327694 0.059284 0.733365 -0.251919 -0.019232 0.255108 -0.210146 0.038238 0.382571 0.576418 -0.024554 0.445223 -0.015079 -0.511496
smell 0.226654 -0.408512 0.286430 -0.279370 0.127562 -0.024224 0.348994 -0.040367 -0.032032 0.000331 0.467613 0.260749 -0.387749 -0.468148 -0.009178 0.637956 0.502607 0.049095 0.520670 0.320523 0.172123 0.361252 0.123476 -0.530921 -0.386284 -0.311858 -0.349186 -0.141415 0.095327 -0.052162 -0.049705 -0.236225 -0.332827 -0.059401 0.302414 0.436405 0.372120 0.072411 0.812227 -0.284287 -0.032892 0.277324 -0.233865 0.028141 0.419919 0.642139 -0.032599 0.493116 -0.023578 -0.575603
long 0.204566 -0.390876 0.265008 -0.264815 0.116324 -0.023354 0.309125 -0.039160 -0.019925 -0.008066 0.434857 0.236062 -0.350052 -0.427903 0.000479 0.575116 0.453911 0.059821 0.486937 0.294325 0.147429 0.339395 0.115050 -0.481163 -0.367153 -0.280885 -0.310488 -0.115881 0.087773 -0.035821 -0.047005 -0.228159 -0.304530 -0.046423 0.268510 0.389328 0.340642 0.062313 0.750608 -0.244766 -0.024752 0.251882 -0.227020 0.042059 0.380520 0.592364 -0.032304 0.444843 -0.018744 -0.527987
quite 0.189650 -0.355208 0.236408 -0.235615 0.105695 -0.011723 0.290853 -0.039055 -0.020279 -0.007218 0.396733 0.206616 -0.328326 -0.393427 -0.004797 0.522963 0.403922 0.048673 0.450702 0.265480 0.144469 0.309731 0.095895 -0.441758 -0.332725 -0.247972 -0.283396 -0.115852 0.075522 -0.032489 -0.043153 -0.206825 -0.287364 -0.051731 0.255164 0.368784 0.298675 0.058383 0.685073 -0.224911 -0.028400 0.240873 -0.199514 0.022823 0.358442 0.545747 -0.031047 0.406243 -0.018621 -0.468997
heavy 0.228074 -0.395861 0.277967 -0.269372 0.106334 -0.015116 0.338413 -0.041611 -0.034144 -0.003011 0.461552 0.241956 -0.371558 -0.444844 -0.004257 0.618926 0.481980 0.051131 0.508322 0.312371 0.169384 0.344751 0.112965 -0.515578 -0.378408 -0.302837 -0.343299 -0.138822 0.103224 -0.043405 -0.051476 -0.242181 -0.334234 -0.059273 0.282831 0.413458 0.360383 0.062423 0.784045 -0.268062 -0.018613 0.269978 -0.227703 0.039183 0.397773 0.636825 -0.028141 0.475184 -0.010239 -0.558500
definitely 0.265980 -0.468783 0.322727 -0.329112 0.126186 -0.026740 0.386811 -0.052069 -0.028791 -0.013986 0.537394 0.281923 -0.449909 -0.529750 -0.006952 0.718228 0.551992 0.069225 0.608803 0.370068 0.192339 0.418710 0.137038 -0.592040 -0.434412 -0.343563 -0.386403 -0.147633 0.119445 -0.043674 -0.043520 -0.277934 -0.391093 -0.067464 0.329375 0.486731 0.426831 0.069878 0.908600 -0.312825 -0.041508 0.310588 -0.281687 0.038174 0.478565 0.744958 -0.026482 0.554702 -0.022546 -0.640756
wearing 0.221789 -0.397473 0.276845 -0.279863 0.109551 -0.028453 0.333212 -0.042581 -0.030587 0.000480 0.455118 0.234610 -0.372048 -0.434805 0.007442 0.597707 0.470379 0.055351 0.514308 0.321268 0.160147 0.346262 0.121132 -0.510730 -0.372213 -0.292603 -0.327916 -0.125984 0.107942 -0.044086 -0.048532 -0.221250 -0.319312 -0.054851 0.284141 0.408091 0.359092 0.071644 0.779731 -0.263233 -0.035175 0.263269 -0.237943 0.031721 0.396876 0.624231 -0.030487 0.462660 -0.011755 -0.546964
made 0.241131 -0.427418 0.286054 -0.279114 0.114738 -0.013731 0.339756 -0.054494 -0.036795 -0.017748 0.479134 0.247100 -0.402046 -0.459644 0.003052 0.632777 0.498612 0.047805 0.546070 0.337527 0.183518 0.356205 0.129025 -0.539504 -0.391092 -0.320309 -0.357752 -0.131041 0.096441 -0.039265 -0.052171 -0.244820 -0.351538 -0.052198 0.301727 0.438308 0.377955 0.063492 0.812976 -0.285645 -0.031158 0.277745 -0.237065 0.043284 0.426519 0.656502 -0.038362 0.492520 -0.010295 -0.571108
pretty 0.293364 -0.535777 0.361528 -0.359846 0.155487 -0.030598 0.442646 -0.055124 -0.028888 -0.019358 0.600036 0.319695 -0.501891 -0.574527 -0.005561 0.800734 0.618571 0.072687 0.673303 0.416791 0.207440 0.454556 0.161998 -0.667434 -0.483220 -0.381812 -0.433605 -0.161383 0.120841 -0.051268 -0.052187 -0.310671 -0.422933 -0.062206 0.374446 0.547729 0.461811 0.086432 1.018050 -0.353161 -0.032747 0.359224 -0.305557 0.054719 0.525614 0.823892 -0.035942 0.620613 -0.007937 -0.715130
top 0.224648 -0.408496 0.288005 -0.271487 0.114390 -0.022227 0.330677 -0.053228 -0.034228 -0.014014 0.461847 0.253229 -0.394348 -0.450371 0.002815 0.622763 0.489118 0.057309 0.519495 0.316990 0.175375 0.354849 0.121867 -0.506866 -0.381879 -0.310998 -0.342398 -0.130564 0.105404 -0.050156 -0.056463 -0.238522 -0.338253 -0.050955 0.290920 0.427665 0.369015 0.075118 0.785602 -0.260458 -0.029680 0.271862 -0.235322 0.047391 0.411327 0.643445 -0.018272 0.489058 -0.020557 -0.562292
primer 0.235403 -0.444472 0.304715 -0.297941 0.129501 -0.025113 0.357770 -0.058710 -0.034799 0.002097 0.485287 0.271121 -0.409457 -0.485506 -0.005189 0.651520 0.524330 0.065870 0.556292 0.344026 0.181131 0.388465 0.139659 -0.554042 -0.409777 -0.323438 -0.356115 -0.136786 0.115514 -0.048439 -0.046285 -0.244788 -0.355852 -0.056296 0.304264 0.453434 0.386690 0.080386 0.842873 -0.280374 -0.029946 0.293918 -0.253832 0.035282 0.447539 0.682315 -0.037766 0.516794 -0.024394 -0.601216
daily 0.261796 -0.484525 0.346625 -0.336904 0.138032 -0.030428 0.403945 -0.060843 -0.035091 -0.010541 0.547735 0.290692 -0.470263 -0.542798 -0.003366 0.730902 0.583273 0.062060 0.628834 0.394805 0.197176 0.426163 0.147403 -0.612628 -0.462752 -0.358779 -0.405866 -0.162408 0.117067 -0.062622 -0.053991 -0.292007 -0.388883 -0.056960 0.347043 0.516654 0.419983 0.080163 0.942124 -0.322465 -0.026311 0.318767 -0.289400 0.046331 0.497552 0.764923 -0.027082 0.568627 -0.013656 -0.663176
going 0.242786 -0.436427 0.298623 -0.280293 0.117135 -0.012121 0.353818 -0.050751 -0.020626 -0.018015 0.480370 0.252104 -0.395985 -0.479227 0.004975 0.651762 0.504344 0.064281 0.545733 0.346093 0.177054 0.377209 0.122283 -0.538422 -0.386779 -0.321239 -0.359477 -0.133659 0.110404 -0.051414 -0.048538 -0.256925 -0.353747 -0.049155 0.308119 0.438663 0.374950 0.067539 0.822297 -0.286632 -0.025914 0.280380 -0.246210 0.030486 0.434100 0.667921 -0.027489 0.503603 -0.017068 -0.593353
sure 0.221377 -0.415927 0.283631 -0.273879 0.104809 -0.013579 0.327732 -0.055398 -0.034190 -0.008090 0.452262 0.253476 -0.387570 -0.455177 -0.002872 0.616108 0.484083 0.052129 0.505778 0.315644 0.172170 0.360847 0.112600 -0.507460 -0.370842 -0.288064 -0.329954 -0.135561 0.102091 -0.053007 -0.042280 -0.232567 -0.338908 -0.061392 0.299058 0.422040 0.361144 0.069863 0.794510 -0.272001 -0.020736 0.266940 -0.237031 0.041221 0.403098 0.628058 -0.037425 0.487261 -0.020567 -0.560120
ingredients 0.263577 -0.490209 0.343957 -0.336772 0.133429 -0.020435 0.398006 -0.056183 -0.026230 -0.012668 0.553106 0.294143 -0.462443 -0.539447 0.007998 0.745812 0.566865 0.076295 0.619608 0.386579 0.193689 0.428627 0.146635 -0.610119 -0.462560 -0.350929 -0.411295 -0.146979 0.113992 -0.057008 -0.054743 -0.275773 -0.407540 -0.053678 0.347302 0.508398 0.434945 0.081842 0.948405 -0.313418 -0.039260 0.331292 -0.282192 0.045354 0.503056 0.766607 -0.028068 0.574732 -0.013018 -0.666806
oil 0.302478 -0.567217 0.382548 -0.383252 0.161018 -0.033396 0.458133 -0.066342 -0.039090 -0.010044 0.641324 0.334714 -0.522865 -0.620651 -0.000334 0.853808 0.656209 0.076983 0.720888 0.432588 0.237893 0.480888 0.161689 -0.709003 -0.517035 -0.408803 -0.480009 -0.184354 0.143260 -0.056015 -0.056044 -0.325750 -0.463640 -0.067571 0.398976 0.581928 0.495857 0.083257 1.078966 -0.376094 -0.036653 0.383985 -0.331282 0.049983 0.564282 0.877905 -0.041035 0.667594 -0.026231 -0.771471
actually 0.289399 -0.521975 0.367123 -0.363934 0.154983 -0.027355 0.441762 -0.062038 -0.031861 -0.018744 0.597349 0.308314 -0.497430 -0.572546 -0.008175 0.801259 0.618142 0.078867 0.669707 0.405984 0.213380 0.454282 0.161334 -0.665946 -0.497861 -0.378907 -0.431793 -0.160867 0.138135 -0.061058 -0.066201 -0.312770 -0.422469 -0.059683 0.385738 0.537588 0.472870 0.086782 1.012847 -0.353382 -0.032328 0.346499 -0.299352 0.039028 0.535675 0.818014 -0.045127 0.627883 -0.010200 -0.719273
body 0.167289 -0.297149 0.208626 -0.199895 0.077828 -0.018339 0.249577 -0.029913 -0.019407 -0.000304 0.350426 0.176139 -0.293278 -0.332936 0.003850 0.450905 0.359168 0.045010 0.387433 0.234085 0.123445 0.263709 0.087500 -0.377623 -0.270358 -0.212987 -0.251383 -0.096839 0.068155 -0.027073 -0.042488 -0.173016 -0.241348 -0.039887 0.223047 0.314821 0.264900 0.039873 0.586172 -0.191993 -0.027909 0.204895 -0.175557 0.020903 0.301167 0.477959 -0.031449 0.362468 -0.012992 -0.420909
goes 0.220690 -0.397360 0.277550 -0.256986 0.114560 -0.020364 0.312127 -0.041194 -0.016560 -0.003778 0.432562 0.236962 -0.363199 -0.419545 0.009554 0.591827 0.465761 0.057139 0.499729 0.311405 0.148545 0.333736 0.123077 -0.496425 -0.355732 -0.281968 -0.323694 -0.115814 0.102823 -0.035761 -0.032642 -0.226685 -0.310967 -0.053560 0.274003 0.411261 0.343207 0.061337 0.749086 -0.263821 -0.018753 0.252595 -0.224308 0.026869 0.397769 0.606983 -0.031092 0.464253 -0.014129 -0.541657
applied 0.282253 -0.529679 0.359555 -0.346922 0.151952 -0.022339 0.431213 -0.063954 -0.030660 -0.003344 0.586367 0.309725 -0.488492 -0.578738 -0.008209 0.796421 0.621104 0.077211 0.671138 0.418083 0.217170 0.452125 0.153632 -0.667569 -0.477546 -0.388530 -0.433163 -0.167241 0.132112 -0.050419 -0.055270 -0.298410 -0.419879 -0.066278 0.377926 0.531717 0.461600 0.090724 1.019355 -0.347844 -0.029797 0.354295 -0.304656 0.051766 0.530693 0.811479 -0.045190 0.615376 -0.020606 -0.716265
Neutrogena 0.365614 -0.654402 0.447849 -0.438876 0.184819 -0.033166 0.530049 -0.074239 -0.051485 -0.006122 0.745619 0.397855 -0.617647 -0.716124 -0.000098 0.986531 0.756372 0.085271 0.825001 0.518039 0.268530 0.570890 0.187135 -0.827920 -0.612145 -0.475207 -0.541917 -0.217428 0.161046 -0.068881 -0.064224 -0.368728 -0.534847 -0.081706 0.466972 0.675033 0.568491 0.109908 1.261754 -0.429606 -0.036698 0.435503 -0.380038 0.053757 0.657884 1.024074 -0.054212 0.766290 -0.015749 -0.900849
amp 0.330179 -0.610817 0.418250 -0.418955 0.178825 -0.025117 0.500874 -0.061467 -0.038887 -0.010409 0.691520 0.364957 -0.573213 -0.680354 -0.001032 0.931449 0.711410 0.075873 0.774825 0.483164 0.258090 0.526261 0.177003 -0.773515 -0.556412 -0.444252 -0.510000 -0.194109 0.156768 -0.075930 -0.075357 -0.344027 -0.503212 -0.082559 0.430514 0.629465 0.533095 0.104929 1.174927 -0.401137 -0.042219 0.421111 -0.360876 0.044067 0.615938 0.949044 -0.050150 0.716850 -0.016879 -0.831197
ever 0.243525 -0.455887 0.319819 -0.304538 0.127613 -0.020095 0.378658 -0.061739 -0.019237 -0.008428 0.515077 0.281805 -0.439661 -0.510557 -0.000074 0.693505 0.543278 0.064373 0.584990 0.365008 0.184129 0.395708 0.138993 -0.584295 -0.424342 -0.343780 -0.387578 -0.150583 0.108281 -0.053463 -0.056502 -0.272568 -0.373440 -0.068523 0.319584 0.471247 0.393443 0.066237 0.879898 -0.308410 -0.025989 0.312373 -0.269236 0.030658 0.465678 0.719925 -0.027456 0.544752 -0.007964 -0.633118
days 0.182076 -0.338970 0.232781 -0.228977 0.105130 -0.022906 0.273866 -0.039793 -0.029397 -0.016319 0.371362 0.205858 -0.310765 -0.378993 -0.001271 0.514744 0.403160 0.045976 0.420841 0.274920 0.146299 0.304151 0.097484 -0.426609 -0.317361 -0.253542 -0.276953 -0.103644 0.092147 -0.030086 -0.038880 -0.186566 -0.285217 -0.050419 0.245629 0.341229 0.289612 0.063183 0.654797 -0.227622 -0.033770 0.229579 -0.198808 0.023818 0.345112 0.519904 -0.015990 0.404573 -0.013036 -0.462506
around 0.262298 -0.476302 0.327953 -0.312956 0.132933 -0.025648 0.379599 -0.057573 -0.033993 -0.021392 0.519258 0.287547 -0.435897 -0.520375 0.003911 0.703908 0.553943 0.071591 0.590744 0.367368 0.189011 0.398540 0.127394 -0.594173 -0.436848 -0.351210 -0.388951 -0.160898 0.123082 -0.058908 -0.059368 -0.273284 -0.389642 -0.061130 0.333365 0.478414 0.404397 0.073757 0.900245 -0.316718 -0.035148 0.313719 -0.271712 0.042893 0.473358 0.733247 -0.030616 0.555164 -0.020631 -0.630375
bad 0.250561 -0.438513 0.316838 -0.298147 0.118001 -0.022743 0.371458 -0.053677 -0.031491 -0.007769 0.499511 0.274369 -0.408985 -0.481202 -0.010858 0.665417 0.520765 0.060241 0.562182 0.358464 0.177292 0.387678 0.124311 -0.560986 -0.401584 -0.335094 -0.362955 -0.143298 0.106520 -0.045668 -0.052192 -0.259136 -0.368662 -0.065950 0.325009 0.457791 0.383973 0.066774 0.865075 -0.284948 -0.035181 0.287182 -0.255200 0.045707 0.454012 0.688666 -0.032797 0.517682 -0.017779 -0.604349
far 0.202686 -0.374865 0.265920 -0.267032 0.106246 -0.016605 0.311439 -0.045949 -0.016579 -0.002995 0.424362 0.233704 -0.368365 -0.427504 0.004848 0.563829 0.445640 0.046886 0.478661 0.288698 0.149960 0.332821 0.109235 -0.481936 -0.355897 -0.288481 -0.310270 -0.116865 0.090432 -0.038126 -0.045767 -0.219094 -0.306993 -0.040747 0.276827 0.390517 0.330466 0.052919 0.745669 -0.247479 -0.032543 0.246074 -0.224688 0.031103 0.378675 0.583225 -0.031159 0.454194 -0.010498 -0.518709
thick 0.116720 -0.200950 0.142471 -0.134015 0.055807 -0.013189 0.171652 -0.019209 -0.005455 0.000970 0.237658 0.123029 -0.193586 -0.229476 0.000254 0.304045 0.231492 0.023096 0.263499 0.168382 0.085541 0.176200 0.057341 -0.248687 -0.191235 -0.143220 -0.177463 -0.066726 0.058482 -0.021737 -0.027079 -0.124699 -0.157766 -0.032391 0.139333 0.206261 0.180077 0.026114 0.394035 -0.131733 -0.006125 0.137844 -0.127984 0.018902 0.207026 0.323789 -0.004000 0.229575 -0.007448 -0.286645
mineral 0.203833 -0.356182 0.247712 -0.251470 0.112958 -0.006114 0.301337 -0.048268 -0.024129 -0.013243 0.411008 0.211800 -0.344892 -0.412154 -0.003302 0.548357 0.429494 0.059474 0.468751 0.294162 0.155901 0.323913 0.099412 -0.461763 -0.334666 -0.261699 -0.298968 -0.123030 0.080434 -0.049560 -0.035362 -0.204747 -0.302599 -0.049153 0.271417 0.386004 0.312459 0.057333 0.709226 -0.243087 -0.028562 0.238583 -0.216979 0.028247 0.364474 0.561092 -0.019868 0.427124 -0.017004 -0.507568
free 0.292481 -0.523168 0.367927 -0.350492 0.141166 -0.012516 0.432518 -0.061083 -0.043140 -0.013603 0.583899 0.310967 -0.494830 -0.574874 -0.001413 0.771130 0.612212 0.064550 0.663444 0.396451 0.218500 0.443969 0.162353 -0.648547 -0.487199 -0.382538 -0.426851 -0.159208 0.122025 -0.063972 -0.054500 -0.301853 -0.424116 -0.061989 0.364462 0.530909 0.455209 0.076651 1.000693 -0.341754 -0.039284 0.342361 -0.293559 0.039806 0.526219 0.801915 -0.045509 0.597748 -0.015433 -0.707385
However 0.216030 -0.413972 0.277319 -0.265125 0.105299 -0.024594 0.343034 -0.049736 -0.021877 -0.005543 0.461401 0.255207 -0.380942 -0.455051 0.003675 0.614690 0.475187 0.053945 0.520228 0.316131 0.155283 0.355985 0.125537 -0.515820 -0.375706 -0.305358 -0.339117 -0.127715 0.095734 -0.045912 -0.046398 -0.235163 -0.338696 -0.053107 0.289959 0.420117 0.358579 0.057719 0.792602 -0.276145 -0.035259 0.275407 -0.237136 0.036046 0.399922 0.622754 -0.036653 0.476206 -0.022477 -0.544604
lt 0.233641 -0.448431 0.315750 -0.301701 0.118483 -0.009438 0.368622 -0.049832 -0.040007 -0.012988 0.484409 0.253860 -0.417134 -0.492289 -0.002295 0.649807 0.528412 0.071077 0.566872 0.339927 0.190391 0.386496 0.124948 -0.561454 -0.416948 -0.316814 -0.377181 -0.144687 0.109888 -0.053792 -0.055113 -0.248037 -0.353570 -0.067276 0.309487 0.447057 0.387878 0.064735 0.854219 -0.301886 -0.026426 0.286922 -0.257020 0.027275 0.444642 0.693628 -0.029498 0.528911 -0.015633 -0.612228
enough 0.338511 -0.608631 0.439612 -0.410442 0.182070 -0.036245 0.515001 -0.062443 -0.031326 -0.023128 0.688408 0.377976 -0.591316 -0.673713 -0.007351 0.931874 0.723115 0.082529 0.778689 0.484538 0.242542 0.524546 0.181693 -0.768923 -0.572854 -0.455222 -0.511999 -0.201052 0.142818 -0.075988 -0.058619 -0.347716 -0.495201 -0.073246 0.430781 0.630914 0.533204 0.091830 1.196479 -0.397022 -0.053444 0.401421 -0.353787 0.048545 0.618607 0.953071 -0.038716 0.714430 -0.029056 -0.833935
every 0.179901 -0.347992 0.233560 -0.241643 0.095876 -0.023618 0.294701 -0.031524 -0.017365 -0.005435 0.385905 0.218051 -0.327775 -0.379221 0.006200 0.535542 0.405852 0.056992 0.450517 0.276476 0.143425 0.306582 0.110054 -0.443133 -0.323957 -0.258570 -0.294051 -0.102846 0.083991 -0.044466 -0.045174 -0.197158 -0.280476 -0.045272 0.249275 0.367906 0.304246 0.053085 0.685305 -0.222281 -0.035724 0.235404 -0.197737 0.035381 0.347576 0.541814 -0.030449 0.408568 -0.012036 -0.470621
give 0.274481 -0.520784 0.359064 -0.356012 0.140070 -0.015164 0.418880 -0.061741 -0.028808 -0.019779 0.570651 0.305080 -0.476319 -0.560935 -0.001201 0.768171 0.609390 0.074606 0.645995 0.401845 0.209681 0.439460 0.146683 -0.646447 -0.484669 -0.369520 -0.418848 -0.158300 0.120220 -0.063771 -0.051226 -0.300426 -0.429066 -0.070684 0.367427 0.533931 0.443067 0.087687 0.986155 -0.344832 -0.031412 0.342287 -0.291511 0.036999 0.512312 0.795520 -0.040027 0.605066 -0.017750 -0.695020
gt 0.247572 -0.479870 0.329630 -0.310684 0.133523 -0.021894 0.394750 -0.053501 -0.024506 -0.022824 0.531236 0.275026 -0.452112 -0.509655 -0.001358 0.703241 0.550766 0.072766 0.596096 0.375778 0.203440 0.415559 0.134468 -0.598951 -0.431836 -0.338261 -0.403422 -0.160714 0.108059 -0.043753 -0.053038 -0.271687 -0.383146 -0.058361 0.328005 0.484425 0.396526 0.079488 0.896244 -0.315325 -0.029280 0.301862 -0.263181 0.044254 0.473757 0.739490 -0.029296 0.543783 -0.011171 -0.633623
physical 0.126919 -0.229983 0.168243 -0.161673 0.065292 -0.019082 0.188927 -0.032613 -0.015571 -0.010729 0.250192 0.127316 -0.220113 -0.259138 0.001068 0.336330 0.274914 0.034561 0.288929 0.169704 0.086599 0.196278 0.068107 -0.277173 -0.208991 -0.167308 -0.200583 -0.062609 0.047723 -0.030527 -0.019045 -0.130581 -0.193467 -0.033460 0.171643 0.235200 0.195768 0.033158 0.442703 -0.150652 -0.018051 0.154409 -0.139115 0.028959 0.233905 0.352376 -0.010778 0.265320 -0.005836 -0.318820
ll 0.286879 -0.548494 0.380386 -0.359877 0.153301 -0.020354 0.451887 -0.061896 -0.034524 -0.004284 0.604289 0.328604 -0.520561 -0.604095 -0.005955 0.816389 0.647771 0.073088 0.687704 0.437656 0.221580 0.472348 0.168840 -0.685992 -0.506097 -0.395022 -0.448807 -0.169013 0.142933 -0.065932 -0.069252 -0.304638 -0.441318 -0.075569 0.392246 0.565220 0.478772 0.081495 1.053080 -0.348842 -0.043277 0.361579 -0.306652 0.040070 0.542833 0.846337 -0.029068 0.642674 -0.025542 -0.744614
want 0.148485 -0.270460 0.195069 -0.188801 0.068237 -0.015430 0.226516 -0.036141 -0.026389 -0.004938 0.308724 0.160352 -0.270658 -0.314686 -0.003119 0.426419 0.323666 0.042141 0.354090 0.218611 0.103313 0.241849 0.088832 -0.338839 -0.263097 -0.213532 -0.225985 -0.080924 0.063302 -0.030725 -0.034362 -0.152059 -0.222834 -0.042667 0.204056 0.280769 0.246999 0.048616 0.538789 -0.180518 -0.025964 0.187184 -0.157396 0.031470 0.280135 0.431110 -0.029246 0.324618 -0.009205 -0.386235
many 0.256808 -0.457906 0.330201 -0.310845 0.132259 -0.023806 0.368151 -0.059159 -0.035616 -0.000311 0.507905 0.280243 -0.432828 -0.508776 0.002408 0.694529 0.548013 0.067548 0.591323 0.357481 0.195116 0.405668 0.140852 -0.567139 -0.431805 -0.342564 -0.379384 -0.152995 0.119486 -0.044650 -0.057069 -0.260113 -0.384023 -0.059112 0.327482 0.485346 0.400399 0.071358 0.886327 -0.297168 -0.028467 0.315660 -0.269028 0.029583 0.470502 0.718260 -0.037278 0.539405 -0.020990 -0.618939
people 0.228176 -0.416835 0.283756 -0.274175 0.125206 -0.014824 0.345514 -0.046392 -0.031011 -0.014814 0.468865 0.240377 -0.386777 -0.449814 -0.004607 0.616463 0.487165 0.056898 0.519971 0.319654 0.164369 0.360930 0.117787 -0.518379 -0.385141 -0.298721 -0.349208 -0.125051 0.098184 -0.043885 -0.046137 -0.247725 -0.348335 -0.052157 0.298825 0.429977 0.364636 0.070757 0.795312 -0.266061 -0.027512 0.277392 -0.240231 0.027492 0.415009 0.634067 -0.024927 0.489948 -0.021413 -0.566440
breakouts 0.269605 -0.491966 0.356939 -0.336204 0.149869 -0.032733 0.421909 -0.052254 -0.028189 -0.004516 0.573794 0.297314 -0.465928 -0.561674 0.007633 0.751371 0.582864 0.064505 0.647559 0.405550 0.213972 0.438616 0.144896 -0.637562 -0.464278 -0.359985 -0.409226 -0.156438 0.117222 -0.063141 -0.060358 -0.286237 -0.417049 -0.065231 0.366682 0.515384 0.442645 0.078523 0.981559 -0.339762 -0.041794 0.336634 -0.298331 0.054400 0.503809 0.788716 -0.036994 0.579864 -0.013709 -0.685154
always 0.245352 -0.435715 0.309134 -0.298727 0.128132 -0.024869 0.362384 -0.048065 -0.020846 -0.004866 0.491568 0.258378 -0.418979 -0.486880 -0.005120 0.662380 0.512506 0.048642 0.548681 0.343234 0.179889 0.382914 0.131830 -0.557132 -0.395154 -0.329250 -0.355169 -0.141522 0.105922 -0.054534 -0.055005 -0.244480 -0.360211 -0.055889 0.310353 0.458423 0.385899 0.072532 0.847518 -0.277200 -0.032905 0.300955 -0.260797 0.033786 0.437138 0.670129 -0.032778 0.519464 -0.010048 -0.603842
non 0.151395 -0.292190 0.208384 -0.195582 0.080190 -0.014331 0.235272 -0.033105 -0.019667 -0.000541 0.315853 0.179783 -0.266810 -0.309860 -0.007344 0.443271 0.335182 0.034732 0.360995 0.218450 0.124921 0.246327 0.086740 -0.362777 -0.263535 -0.221375 -0.247950 -0.097490 0.073347 -0.024389 -0.031624 -0.169411 -0.226443 -0.042872 0.207521 0.309555 0.245422 0.047897 0.553431 -0.195582 -0.028478 0.183211 -0.174812 0.026066 0.291872 0.456879 -0.014977 0.335070 -0.016359 -0.399841
easily 0.177948 -0.327521 0.227194 -0.232285 0.091368 -0.014799 0.276947 -0.033174 -0.017535 -0.001178 0.385224 0.207989 -0.311532 -0.377539 0.007943 0.515306 0.405095 0.045988 0.435098 0.265732 0.141143 0.289435 0.104661 -0.434130 -0.303939 -0.244131 -0.284202 -0.108352 0.089565 -0.044253 -0.044172 -0.200065 -0.269378 -0.046698 0.237628 0.344218 0.296454 0.056746 0.645585 -0.229046 -0.021388 0.226451 -0.205101 0.025239 0.344747 0.518801 -0.015379 0.386022 -0.004595 -0.463877
quickly 0.264914 -0.482823 0.337958 -0.321456 0.136945 -0.012683 0.387938 -0.059848 -0.038531 0.001391 0.537347 0.286711 -0.459378 -0.536182 0.009234 0.729370 0.566617 0.073695 0.601923 0.369870 0.204263 0.412986 0.135668 -0.597878 -0.442551 -0.348351 -0.406190 -0.152704 0.127302 -0.058470 -0.057702 -0.276725 -0.388129 -0.051377 0.335899 0.491275 0.417236 0.077880 0.914469 -0.305382 -0.043762 0.312966 -0.274270 0.050656 0.476980 0.748444 -0.029270 0.562390 -0.024007 -0.655585
combination 0.178823 -0.313499 0.233522 -0.221264 0.089493 -0.023437 0.274674 -0.030477 -0.027332 -0.012040 0.355380 0.190434 -0.310218 -0.366668 -0.001588 0.484595 0.377399 0.039505 0.403884 0.265045 0.130232 0.271829 0.084199 -0.404809 -0.300093 -0.233780 -0.271058 -0.109388 0.088451 -0.029974 -0.034666 -0.183206 -0.262195 -0.048458 0.235456 0.330741 0.275040 0.060073 0.623353 -0.204120 -0.017593 0.210989 -0.193844 0.020258 0.334123 0.509597 -0.021626 0.383139 -0.017942 -0.440113
back 0.239651 -0.452529 0.309931 -0.302640 0.117434 -0.021683 0.375637 -0.043887 -0.025445 -0.014223 0.510564 0.262958 -0.428509 -0.484835 -0.010152 0.675213 0.528603 0.070261 0.564105 0.357499 0.190282 0.393685 0.137571 -0.561612 -0.414377 -0.323211 -0.363318 -0.134093 0.109921 -0.049059 -0.052844 -0.266610 -0.369622 -0.059584 0.328510 0.457638 0.383396 0.063749 0.870123 -0.297635 -0.022833 0.295997 -0.264119 0.028665 0.454828 0.700695 -0.039549 0.521616 -0.009402 -0.612462
feeling 0.140200 -0.271237 0.185800 -0.181701 0.077028 -0.020053 0.226388 -0.036662 -0.011875 -0.006763 0.303172 0.161357 -0.257655 -0.301581 -0.004220 0.396697 0.303095 0.029312 0.332438 0.212850 0.104223 0.240921 0.075524 -0.339667 -0.248410 -0.204553 -0.224617 -0.084401 0.070766 -0.031815 -0.024150 -0.150994 -0.215222 -0.023927 0.184268 0.284814 0.240434 0.053121 0.508527 -0.175568 -0.010229 0.171684 -0.146038 0.016608 0.270635 0.410072 -0.019156 0.319848 -0.005375 -0.363735
alcohol 0.134880 -0.254793 0.167805 -0.175732 0.074799 -0.001709 0.208751 -0.027531 -0.024336 -0.012801 0.286749 0.155212 -0.240954 -0.265968 -0.000651 0.381469 0.300484 0.027781 0.313632 0.188287 0.104533 0.214521 0.077861 -0.314698 -0.234835 -0.178141 -0.203147 -0.070715 0.062520 -0.029708 -0.018895 -0.151206 -0.196372 -0.035385 0.184554 0.253806 0.209127 0.036154 0.486982 -0.166714 -0.007860 0.165630 -0.140217 0.022778 0.243860 0.388711 -0.008036 0.283075 -0.003387 -0.344377
perfect 0.225513 -0.426102 0.293335 -0.293534 0.114594 -0.017088 0.352476 -0.042308 -0.035330 -0.003765 0.489818 0.265514 -0.403320 -0.481892 -0.009582 0.641869 0.497455 0.051194 0.548279 0.341424 0.176869 0.367709 0.132234 -0.536645 -0.387338 -0.317055 -0.356967 -0.137178 0.096171 -0.041689 -0.045034 -0.255576 -0.342338 -0.053563 0.311152 0.437456 0.371249 0.065388 0.838855 -0.291655 -0.038613 0.294656 -0.255497 0.046926 0.423558 0.666267 -0.030815 0.496434 -0.008497 -0.594320
super 0.179289 -0.328298 0.238790 -0.223182 0.097927 -0.010072 0.280044 -0.030751 -0.013799 -0.016741 0.377783 0.205998 -0.313352 -0.360413 -0.000865 0.506900 0.387550 0.047637 0.426087 0.258380 0.131088 0.296829 0.105267 -0.421004 -0.304643 -0.237620 -0.269044 -0.098455 0.090516 -0.033853 -0.045903 -0.195197 -0.264926 -0.039852 0.239973 0.341942 0.294879 0.055639 0.639367 -0.219956 -0.027189 0.219930 -0.186428 0.018986 0.336418 0.514631 -0.021135 0.385317 -0.021822 -0.447043
lotion 0.275214 -0.493624 0.351243 -0.334531 0.131838 -0.029386 0.399877 -0.055092 -0.032647 -0.002193 0.556641 0.289263 -0.460279 -0.555831 0.000753 0.745427 0.593759 0.063507 0.631464 0.383970 0.197046 0.429134 0.153171 -0.621660 -0.454770 -0.362716 -0.410532 -0.155110 0.116386 -0.045291 -0.049516 -0.296990 -0.406953 -0.067347 0.350271 0.508019 0.443517 0.074740 0.960873 -0.331440 -0.037529 0.322370 -0.299134 0.040323 0.497016 0.778705 -0.036714 0.588939 -0.008835 -0.674439
pores 0.231250 -0.410171 0.295746 -0.275181 0.115089 -0.015842 0.349892 -0.050208 -0.021303 -0.001858 0.462620 0.241188 -0.390217 -0.446668 0.000808 0.619539 0.495994 0.058123 0.518256 0.329648 0.160942 0.362049 0.113083 -0.518897 -0.380327 -0.305999 -0.348465 -0.137928 0.096187 -0.052034 -0.049269 -0.246443 -0.329583 -0.044600 0.304377 0.424063 0.373722 0.064711 0.806129 -0.270570 -0.021863 0.283124 -0.247937 0.035954 0.415199 0.647496 -0.031796 0.485501 -0.011775 -0.561087
applying 0.180323 -0.346119 0.245964 -0.227137 0.089518 -0.016399 0.279451 -0.045495 -0.014356 0.000997 0.379914 0.205435 -0.325568 -0.386144 -0.007051 0.526567 0.407267 0.039368 0.438365 0.280388 0.134415 0.289228 0.094977 -0.428721 -0.318344 -0.260145 -0.288613 -0.115779 0.087444 -0.048075 -0.039554 -0.195918 -0.280410 -0.043093 0.245077 0.363111 0.311162 0.057147 0.657458 -0.217385 -0.015468 0.232264 -0.207844 0.029155 0.335932 0.530364 -0.026310 0.409939 -0.005217 -0.472555
repurchase 0.168721 -0.315831 0.213846 -0.204971 0.087243 -0.019926 0.253498 -0.043158 -0.021864 -0.004336 0.353968 0.195699 -0.300867 -0.345798 0.001070 0.478534 0.362849 0.046791 0.390040 0.237204 0.137416 0.269867 0.095538 -0.384747 -0.298129 -0.236698 -0.266651 -0.092424 0.082021 -0.034895 -0.031400 -0.173821 -0.262544 -0.036366 0.228381 0.315977 0.280142 0.053420 0.611767 -0.205047 -0.023518 0.215150 -0.191265 0.019172 0.308268 0.479240 -0.028829 0.368301 -0.018347 -0.432188
amount 0.193981 -0.365962 0.266928 -0.248549 0.113161 -0.018706 0.300563 -0.036810 -0.015790 -0.002859 0.413197 0.215435 -0.360314 -0.406600 -0.010921 0.565504 0.447293 0.050027 0.466998 0.300066 0.157905 0.316960 0.109692 -0.461140 -0.354710 -0.270456 -0.318839 -0.119410 0.087448 -0.041000 -0.031000 -0.209734 -0.304322 -0.039598 0.271826 0.392809 0.330589 0.052781 0.716884 -0.250518 -0.032419 0.257299 -0.214246 0.030830 0.384818 0.584678 -0.017565 0.435410 -0.009646 -0.514837
see 0.262416 -0.462587 0.324287 -0.324072 0.136893 -0.017632 0.389556 -0.055137 -0.039811 -0.005589 0.539550 0.289982 -0.435039 -0.526429 -0.002167 0.703760 0.560625 0.069275 0.605705 0.365625 0.194262 0.405434 0.130708 -0.592903 -0.441743 -0.345721 -0.391517 -0.155443 0.122514 -0.058262 -0.045079 -0.277472 -0.389103 -0.057019 0.334932 0.486477 0.421204 0.072754 0.914723 -0.307425 -0.042548 0.319153 -0.278214 0.039320 0.481440 0.722970 -0.023451 0.539987 -0.007628 -0.641967
thing 0.221667 -0.386389 0.280898 -0.267422 0.111425 -0.022984 0.327942 -0.045976 -0.025276 -0.016512 0.449759 0.240051 -0.366654 -0.429620 0.006096 0.585974 0.454932 0.045584 0.490942 0.310833 0.158462 0.329727 0.110264 -0.487319 -0.371279 -0.290740 -0.335960 -0.135139 0.085694 -0.053294 -0.051395 -0.235628 -0.321632 -0.049749 0.273418 0.401690 0.344057 0.056803 0.755311 -0.261754 -0.035897 0.254436 -0.238096 0.026115 0.383699 0.601985 -0.025554 0.465301 -0.014216 -0.525594
started 0.182087 -0.317607 0.233337 -0.216627 0.090304 -0.018561 0.269817 -0.035879 -0.028338 -0.002984 0.369996 0.193077 -0.312289 -0.360008 -0.002828 0.492496 0.386812 0.052000 0.405704 0.261840 0.125453 0.289050 0.092069 -0.409276 -0.306392 -0.247941 -0.261497 -0.108535 0.074978 -0.046815 -0.041010 -0.196098 -0.274486 -0.051928 0.233766 0.345269 0.290137 0.059668 0.629504 -0.222615 -0.026939 0.212039 -0.181059 0.017507 0.330084 0.509167 -0.032302 0.390873 -0.016950 -0.447849
pale 0.178864 -0.341027 0.245493 -0.235066 0.086149 -0.020873 0.278875 -0.047324 -0.022501 -0.006560 0.373949 0.196298 -0.317184 -0.369585 0.001472 0.519374 0.408183 0.040448 0.420496 0.258291 0.147338 0.302172 0.101118 -0.424402 -0.309691 -0.239921 -0.275735 -0.106746 0.076957 -0.036258 -0.035349 -0.193794 -0.269822 -0.044988 0.247791 0.349274 0.295029 0.050100 0.660524 -0.216987 -0.023642 0.219988 -0.189257 0.022178 0.344270 0.527675 -0.030970 0.398568 -0.004112 -0.454876
felt 0.178272 -0.336311 0.220874 -0.229100 0.101660 -0.009936 0.261799 -0.043224 -0.024453 -0.007206 0.378807 0.201481 -0.315883 -0.355843 -0.009350 0.501133 0.390763 0.041700 0.411534 0.260005 0.128074 0.282944 0.090816 -0.420337 -0.297287 -0.236779 -0.280863 -0.102760 0.086666 -0.046326 -0.038495 -0.182146 -0.260187 -0.049333 0.238666 0.343655 0.284707 0.058307 0.644434 -0.208595 -0.018948 0.209973 -0.197339 0.038526 0.338262 0.514451 -0.017138 0.384501 -0.007330 -0.455773
wanted 0.176226 -0.319805 0.220181 -0.209515 0.086383 -0.017742 0.264463 -0.041403 -0.025417 -0.014110 0.351742 0.186898 -0.295958 -0.351005 -0.003398 0.479405 0.377872 0.041962 0.402045 0.245468 0.126546 0.277393 0.086847 -0.394380 -0.299885 -0.229927 -0.260110 -0.102849 0.070790 -0.037000 -0.030118 -0.173147 -0.253580 -0.046602 0.214528 0.333091 0.268333 0.059581 0.616106 -0.204107 -0.016507 0.218606 -0.189203 0.028336 0.309201 0.495859 -0.013847 0.365819 -0.007600 -0.429284
looks 0.179010 -0.343259 0.232776 -0.219222 0.100993 -0.010415 0.274498 -0.038926 -0.024567 0.001495 0.368708 0.207478 -0.308720 -0.371754 -0.008394 0.502046 0.393580 0.053156 0.422199 0.268241 0.127019 0.295907 0.090384 -0.428728 -0.319855 -0.247040 -0.280858 -0.101274 0.082621 -0.033162 -0.047191 -0.185222 -0.265103 -0.043752 0.228690 0.346880 0.294471 0.059209 0.645588 -0.214325 -0.030778 0.216515 -0.191186 0.026997 0.346260 0.521049 -0.027329 0.382508 -0.016522 -0.454026
slightly 0.252174 -0.460985 0.320649 -0.314389 0.140702 -0.020734 0.394634 -0.059393 -0.037780 -0.018462 0.522900 0.289818 -0.434936 -0.513696 -0.000075 0.713399 0.545667 0.059068 0.589385 0.373182 0.201112 0.403603 0.129168 -0.591362 -0.429705 -0.350328 -0.397412 -0.146718 0.125371 -0.044412 -0.046976 -0.274956 -0.378389 -0.061641 0.335042 0.486810 0.404652 0.070213 0.913849 -0.300889 -0.035607 0.316136 -0.264942 0.050528 0.471446 0.733358 -0.038378 0.553800 -0.007775 -0.642400
normal 0.200117 -0.351205 0.234093 -0.242491 0.089752 -0.017243 0.284115 -0.041182 -0.023152 -0.007170 0.388006 0.202043 -0.326634 -0.380989 0.004865 0.519682 0.414447 0.039120 0.451824 0.269221 0.148819 0.297044 0.099006 -0.437812 -0.317197 -0.252292 -0.290671 -0.121332 0.094705 -0.039932 -0.044957 -0.194132 -0.279048 -0.037829 0.253933 0.357593 0.297696 0.050359 0.673411 -0.219513 -0.018146 0.228530 -0.212401 0.033033 0.347590 0.551045 -0.028916 0.405710 -0.020412 -0.475725
say 0.210771 -0.391119 0.279597 -0.268685 0.116489 -0.013313 0.326008 -0.050184 -0.035703 -0.004609 0.446422 0.227293 -0.378428 -0.428939 0.003754 0.585018 0.472097 0.061189 0.490022 0.315410 0.154477 0.346927 0.110605 -0.486893 -0.364263 -0.289364 -0.332623 -0.115732 0.093445 -0.037887 -0.042788 -0.223385 -0.322478 -0.055036 0.289506 0.404052 0.351727 0.058135 0.759683 -0.253401 -0.035346 0.267188 -0.224674 0.035955 0.395026 0.613680 -0.025271 0.455317 -0.008261 -0.532474
d 0.207508 -0.392918 0.269928 -0.253434 0.114355 -0.025325 0.315335 -0.042017 -0.033167 -0.001206 0.426577 0.233713 -0.375333 -0.421446 0.009930 0.576211 0.447868 0.047020 0.488133 0.294876 0.158785 0.344348 0.121826 -0.494954 -0.355778 -0.277584 -0.323741 -0.129910 0.098240 -0.050227 -0.050750 -0.219236 -0.315241 -0.050161 0.273002 0.400827 0.333972 0.057330 0.754458 -0.262159 -0.036394 0.258089 -0.227072 0.036083 0.390785 0.602297 -0.034610 0.451546 -0.013115 -0.522377
version 0.170389 -0.319343 0.220817 -0.202433 0.080563 -0.010864 0.260790 -0.027355 -0.011179 0.001466 0.357025 0.195934 -0.303235 -0.350639 0.006958 0.468312 0.373475 0.037356 0.403427 0.238880 0.134872 0.277103 0.083736 -0.401799 -0.295740 -0.220952 -0.267019 -0.105385 0.083761 -0.044093 -0.029372 -0.185955 -0.259554 -0.038041 0.228505 0.329340 0.284241 0.051166 0.607672 -0.198121 -0.029981 0.216258 -0.174279 0.027354 0.315218 0.494134 -0.029758 0.362849 -0.004263 -0.429791
coverage 0.164678 -0.293412 0.209913 -0.196542 0.081134 -0.016152 0.249298 -0.031690 -0.011830 -0.002625 0.330724 0.191840 -0.293498 -0.331447 -0.002388 0.452591 0.344783 0.040459 0.378817 0.241947 0.131052 0.261711 0.094939 -0.384958 -0.286043 -0.215494 -0.249748 -0.106956 0.075383 -0.025483 -0.038056 -0.169289 -0.250938 -0.038319 0.218594 0.309072 0.263466 0.047032 0.583014 -0.195921 -0.021249 0.210019 -0.166428 0.020244 0.302910 0.468715 -0.026267 0.352614 -0.013622 -0.401577
seems 0.185954 -0.346609 0.231198 -0.242534 0.105315 -0.007855 0.281453 -0.048544 -0.029536 -0.010568 0.378387 0.206601 -0.326700 -0.380743 -0.010018 0.526297 0.403991 0.057357 0.440384 0.266885 0.150561 0.306585 0.100159 -0.441855 -0.324051 -0.250292 -0.295749 -0.111671 0.088087 -0.033428 -0.036114 -0.204621 -0.273549 -0.050648 0.240734 0.354186 0.306189 0.062682 0.670676 -0.235615 -0.029565 0.220843 -0.199030 0.034340 0.339194 0.535074 -0.015414 0.394005 -0.007359 -0.460127
drying 0.233914 -0.419166 0.276979 -0.276499 0.112101 -0.007527 0.332417 -0.045296 -0.025705 -0.016110 0.464663 0.248578 -0.378081 -0.455815 0.009459 0.617138 0.486250 0.055800 0.510419 0.315082 0.159526 0.361889 0.112599 -0.524736 -0.386506 -0.296805 -0.346191 -0.124619 0.107047 -0.055928 -0.044390 -0.242339 -0.340144 -0.048258 0.296535 0.425755 0.355407 0.069326 0.797475 -0.265778 -0.034975 0.276825 -0.246282 0.036836 0.410477 0.633076 -0.026924 0.487130 -0.023814 -0.561771
expensive 0.182183 -0.314289 0.223696 -0.215586 0.086405 -0.015903 0.268378 -0.031653 -0.026844 -0.005603 0.362049 0.199155 -0.309476 -0.342322 0.003505 0.488896 0.380906 0.048663 0.396298 0.245032 0.136000 0.269567 0.101208 -0.389380 -0.299610 -0.225734 -0.256424 -0.092199 0.084670 -0.034200 -0.036849 -0.189881 -0.261139 -0.039482 0.217082 0.337290 0.273514 0.041073 0.614432 -0.210867 -0.023011 0.210822 -0.177356 0.028701 0.310474 0.502107 -0.028862 0.365141 -0.007418 -0.438138
recommend 0.134437 -0.257823 0.178445 -0.166535 0.076288 -0.020275 0.218958 -0.030898 -0.016776 -0.005149 0.291986 0.159728 -0.232300 -0.277614 -0.001129 0.393720 0.307118 0.027726 0.329266 0.211946 0.100525 0.232598 0.073003 -0.317671 -0.230029 -0.179730 -0.213137 -0.089121 0.066938 -0.035737 -0.019695 -0.157186 -0.213499 -0.029508 0.186861 0.257385 0.225450 0.033081 0.491232 -0.169547 -0.026367 0.180682 -0.141418 0.016416 0.260173 0.393943 -0.027191 0.298762 -0.011713 -0.357762
problem 0.289826 -0.531923 0.361061 -0.358594 0.156125 -0.026364 0.425439 -0.066077 -0.029499 -0.005539 0.589756 0.326841 -0.490376 -0.584775 0.000855 0.796969 0.618672 0.070434 0.664333 0.419171 0.221425 0.461522 0.160904 -0.671102 -0.481471 -0.378086 -0.443714 -0.170950 0.123815 -0.067330 -0.068550 -0.313699 -0.438065 -0.062688 0.365846 0.544166 0.471664 0.081051 1.012505 -0.350487 -0.040905 0.354617 -0.315330 0.048002 0.525408 0.821933 -0.032141 0.616145 -0.014762 -0.726672
color 0.149476 -0.284093 0.190217 -0.195480 0.080277 -0.021974 0.227831 -0.023743 -0.010160 -0.007479 0.323897 0.163432 -0.259232 -0.304988 -0.005637 0.426552 0.319891 0.036513 0.358094 0.221435 0.116348 0.238269 0.085040 -0.346463 -0.254538 -0.195789 -0.238461 -0.088493 0.060202 -0.042249 -0.030105 -0.169604 -0.233028 -0.031262 0.191911 0.284328 0.243829 0.052007 0.539285 -0.189138 -0.017776 0.181131 -0.170136 0.030558 0.284415 0.430731 -0.011871 0.335014 -0.018173 -0.388661
formula 0.167778 -0.306791 0.216997 -0.194398 0.083185 -0.016325 0.247970 -0.039839 -0.012198 -0.001670 0.335282 0.178258 -0.291405 -0.329602 -0.003705 0.458945 0.352552 0.037374 0.374372 0.234982 0.130227 0.268809 0.087759 -0.368056 -0.286208 -0.219792 -0.248700 -0.094004 0.065484 -0.037216 -0.041283 -0.166673 -0.244909 -0.028783 0.210161 0.308370 0.268374 0.042264 0.577127 -0.200052 -0.013606 0.193060 -0.167522 0.027955 0.292523 0.458570 -0.022188 0.358861 -0.008319 -0.402185
bottle 0.093961 -0.178421 0.119754 -0.116809 0.050084 -0.010389 0.152135 -0.017813 -0.012389 -0.000586 0.215991 0.103276 -0.179924 -0.209133 0.004863 0.270317 0.222823 0.028793 0.239690 0.142296 0.072129 0.154424 0.056130 -0.224909 -0.174873 -0.133651 -0.151675 -0.065430 0.048924 -0.016105 -0.027774 -0.104273 -0.156651 -0.031699 0.137580 0.186410 0.158419 0.032443 0.355675 -0.111189 -0.013211 0.124536 -0.112029 0.010083 0.186377 0.286953 -0.009365 0.217547 -0.009440 -0.245988
small 0.189234 -0.354066 0.247180 -0.235989 0.110113 -0.007243 0.304423 -0.040851 -0.018350 -0.010209 0.411628 0.212288 -0.343951 -0.390478 -0.004940 0.533629 0.413705 0.056956 0.452542 0.288437 0.155529 0.315911 0.106369 -0.454871 -0.338640 -0.260719 -0.294213 -0.115129 0.080873 -0.044264 -0.031049 -0.201745 -0.298160 -0.045786 0.253480 0.369082 0.319578 0.055506 0.694449 -0.243236 -0.027362 0.229843 -0.216140 0.037552 0.373826 0.552663 -0.028152 0.429847 -0.004121 -0.485691
neck 0.272023 -0.500928 0.341633 -0.333671 0.145058 -0.013756 0.414884 -0.058757 -0.040154 -0.016409 0.553927 0.299797 -0.471847 -0.550948 0.006718 0.758193 0.588967 0.070905 0.625745 0.404182 0.198691 0.436551 0.151074 -0.621462 -0.462411 -0.377704 -0.422887 -0.149978 0.123456 -0.054519 -0.060595 -0.300434 -0.408446 -0.068986 0.362055 0.510672 0.449056 0.076263 0.972406 -0.328660 -0.034901 0.344588 -0.290636 0.050517 0.500146 0.772174 -0.044459 0.598009 -0.013893 -0.680730
fair 0.201829 -0.340301 0.253212 -0.229301 0.099557 -0.022767 0.297837 -0.047424 -0.030829 -0.015498 0.401079 0.203027 -0.335797 -0.385843 0.004753 0.534657 0.418443 0.051315 0.437071 0.274727 0.137138 0.310780 0.111956 -0.441501 -0.321057 -0.256892 -0.299063 -0.112610 0.091050 -0.035563 -0.032121 -0.200484 -0.286111 -0.048667 0.254260 0.373066 0.315319 0.060763 0.677324 -0.220465 -0.026150 0.231194 -0.211913 0.028685 0.356796 0.542836 -0.014437 0.403366 -0.006312 -0.476230
application 0.174617 -0.319811 0.220879 -0.215086 0.091759 -0.008745 0.258146 -0.033720 -0.011308 -0.001899 0.349173 0.195891 -0.306833 -0.351848 0.000333 0.486937 0.374770 0.050943 0.410234 0.249645 0.121189 0.279179 0.091373 -0.407464 -0.292474 -0.234514 -0.259263 -0.099221 0.074049 -0.038731 -0.043883 -0.174624 -0.251006 -0.045596 0.219159 0.329267 0.271643 0.056818 0.616187 -0.200147 -0.014808 0.215225 -0.175999 0.019582 0.320594 0.502239 -0.026241 0.377764 -0.009705 -0.432698
right 0.254390 -0.464664 0.331385 -0.322937 0.142821 -0.027518 0.395634 -0.056304 -0.030966 -0.019764 0.532039 0.275775 -0.432506 -0.516647 -0.004029 0.713844 0.550589 0.072652 0.598012 0.373073 0.188795 0.409185 0.144013 -0.585885 -0.437656 -0.341191 -0.381896 -0.154182 0.112230 -0.061034 -0.051776 -0.278281 -0.382258 -0.066193 0.332134 0.486555 0.401049 0.075015 0.907711 -0.313714 -0.029471 0.320075 -0.280507 0.031357 0.471032 0.726510 -0.024430 0.545649 -0.019619 -0.641225
new 0.094563 -0.175521 0.127430 -0.116778 0.056738 -0.013996 0.142319 -0.017666 -0.012800 -0.004535 0.188931 0.107181 -0.164097 -0.192780 -0.008782 0.270784 0.197395 0.026858 0.223739 0.129188 0.061677 0.156583 0.050986 -0.208998 -0.159674 -0.126009 -0.146499 -0.053336 0.041037 -0.018961 -0.015025 -0.102617 -0.147813 -0.011337 0.128212 0.189944 0.163063 0.032105 0.346756 -0.106708 -0.004030 0.114763 -0.102685 0.014211 0.178497 0.273029 -0.016973 0.194741 0.002056 -0.237556
last 0.176493 -0.321889 0.220983 -0.219837 0.094585 -0.016494 0.250818 -0.025730 -0.030596 -0.013469 0.341851 0.190520 -0.289066 -0.340360 -0.009710 0.466832 0.359323 0.041858 0.388150 0.254431 0.118605 0.269889 0.093183 -0.395935 -0.292706 -0.227322 -0.251557 -0.098909 0.068082 -0.037341 -0.028553 -0.183137 -0.252850 -0.045216 0.220059 0.316576 0.278400 0.043823 0.611156 -0.211402 -0.028429 0.218864 -0.174486 0.027416 0.309394 0.479731 -0.011784 0.365541 -0.016967 -0.426553
tone 0.178721 -0.317552 0.233847 -0.225906 0.086770 -0.006965 0.275479 -0.044382 -0.028420 -0.010404 0.366060 0.191107 -0.306423 -0.354124 0.007157 0.501604 0.378168 0.039680 0.408951 0.251303 0.134876 0.278791 0.106452 -0.420847 -0.302854 -0.248947 -0.275666 -0.113044 0.089550 -0.038132 -0.030040 -0.188024 -0.264095 -0.034136 0.245174 0.342307 0.298052 0.047218 0.640968 -0.208728 -0.027921 0.227088 -0.195549 0.021164 0.335098 0.505363 -0.015956 0.388358 -0.002599 -0.437922
usually 0.145273 -0.277672 0.190109 -0.198093 0.074342 -0.011242 0.227957 -0.028459 -0.027731 -0.009210 0.322166 0.162030 -0.251852 -0.312242 0.009856 0.418900 0.332871 0.029578 0.357680 0.218887 0.109785 0.232457 0.087159 -0.351562 -0.253214 -0.204966 -0.225442 -0.090074 0.063093 -0.022119 -0.024623 -0.159060 -0.221421 -0.040460 0.191047 0.291758 0.234763 0.042027 0.533474 -0.173580 -0.025973 0.191558 -0.170443 0.031862 0.283822 0.421467 -0.022343 0.317803 -0.015203 -0.371320
hours 0.153920 -0.276415 0.192881 -0.188146 0.072495 -0.009505 0.232388 -0.038754 -0.011085 -0.006750 0.308955 0.165270 -0.256974 -0.316172 0.008535 0.413289 0.318500 0.030697 0.350167 0.218232 0.108948 0.232664 0.072145 -0.346498 -0.262356 -0.209090 -0.240440 -0.095718 0.075706 -0.033139 -0.038103 -0.170040 -0.226249 -0.035962 0.190723 0.282141 0.246509 0.046446 0.532220 -0.190146 -0.027739 0.181210 -0.154247 0.020007 0.283199 0.426143 -0.017311 0.325064 -0.019585 -0.380701
less 0.147025 -0.263496 0.185083 -0.193710 0.074931 -0.005586 0.222317 -0.030702 -0.010873 -0.003044 0.302077 0.162472 -0.253107 -0.297499 -0.000046 0.400623 0.315905 0.034705 0.337611 0.212622 0.106990 0.231196 0.075327 -0.332678 -0.259210 -0.200741 -0.219423 -0.090395 0.074065 -0.039095 -0.039642 -0.158604 -0.211899 -0.033033 0.191149 0.286355 0.234037 0.036806 0.527416 -0.176054 -0.022950 0.178451 -0.169644 0.023925 0.274820 0.415226 -0.018204 0.318183 -0.013922 -0.366099
isn 0.207977 -0.378337 0.249680 -0.240921 0.108201 -0.018782 0.308546 -0.036690 -0.015238 -0.014909 0.421565 0.233149 -0.357546 -0.409862 -0.009250 0.559596 0.435261 0.045926 0.474912 0.298667 0.141137 0.318109 0.105009 -0.465343 -0.339633 -0.277154 -0.313569 -0.121736 0.094527 -0.033794 -0.040144 -0.218269 -0.302217 -0.046465 0.261994 0.391450 0.334647 0.060795 0.725374 -0.241727 -0.033334 0.253811 -0.222528 0.026245 0.368180 0.565879 -0.021059 0.441365 -0.007609 -0.501816
may 0.150002 -0.251630 0.180686 -0.186277 0.080698 -0.002348 0.212536 -0.023941 -0.018671 -0.001534 0.300806 0.148568 -0.246101 -0.291971 -0.005554 0.399859 0.300958 0.027421 0.330055 0.208989 0.112912 0.229849 0.074363 -0.333193 -0.248965 -0.186532 -0.219222 -0.081668 0.072884 -0.029532 -0.038574 -0.143192 -0.215063 -0.036595 0.194255 0.270506 0.238443 0.046063 0.498812 -0.178114 -0.024941 0.172754 -0.160012 0.032872 0.251848 0.409012 -0.028084 0.313994 -0.007794 -0.353443
easy 0.127257 -0.216400 0.144644 -0.157029 0.066761 -0.007471 0.180322 -0.022112 -0.010271 0.003704 0.246865 0.131293 -0.206642 -0.230749 0.001443 0.315885 0.252678 0.035246 0.275616 0.176162 0.078802 0.185884 0.063306 -0.271938 -0.202235 -0.156398 -0.188454 -0.075266 0.061301 -0.018767 -0.024745 -0.125313 -0.175551 -0.032750 0.147391 0.229621 0.181947 0.038909 0.422371 -0.135763 -0.025521 0.135490 -0.135552 0.024778 0.223088 0.338574 -0.019420 0.243200 -0.015406 -0.287742
sticky 0.161123 -0.287424 0.202714 -0.190538 0.075700 -0.005676 0.234044 -0.037157 -0.013398 -0.011845 0.319907 0.167517 -0.273272 -0.304086 -0.009101 0.425348 0.331613 0.042419 0.353813 0.219226 0.111720 0.237223 0.079438 -0.359529 -0.247689 -0.206889 -0.238913 -0.093958 0.070672 -0.033975 -0.027442 -0.155977 -0.223838 -0.031706 0.206516 0.283411 0.249994 0.043096 0.530270 -0.181766 -0.012388 0.184330 -0.155892 0.015703 0.270279 0.424630 -0.013967 0.317304 -0.005760 -0.390015
slight 0.192677 -0.374620 0.257822 -0.258145 0.112103 -0.009835 0.302942 -0.046276 -0.021102 -0.002110 0.415290 0.234108 -0.351179 -0.408831 -0.010680 0.562419 0.443251 0.056875 0.475208 0.287117 0.152168 0.327213 0.111364 -0.456613 -0.335127 -0.274733 -0.304154 -0.112618 0.092529 -0.049163 -0.042398 -0.209489 -0.299438 -0.040467 0.261279 0.377772 0.322568 0.058012 0.716150 -0.243527 -0.031669 0.256220 -0.207875 0.039932 0.364801 0.564452 -0.017327 0.443124 -0.023047 -0.509244
Also 0.161922 -0.300057 0.203138 -0.198192 0.094772 -0.006038 0.257832 -0.034407 -0.012272 0.003527 0.334868 0.174948 -0.281974 -0.329913 -0.006069 0.448836 0.358902 0.042470 0.391227 0.243364 0.114033 0.251762 0.097349 -0.389420 -0.273451 -0.229309 -0.260212 -0.099527 0.073586 -0.031940 -0.038582 -0.173964 -0.247706 -0.045411 0.220728 0.313385 0.270761 0.039237 0.576778 -0.199114 -0.017960 0.199557 -0.180709 0.033871 0.302237 0.475926 -0.012373 0.350147 -0.008111 -0.414577
everyday 0.120272 -0.207058 0.146738 -0.140026 0.064712 -0.002718 0.177263 -0.021718 -0.004263 -0.004186 0.242872 0.132276 -0.206834 -0.238197 -0.008041 0.320188 0.255546 0.022602 0.271797 0.171966 0.087198 0.184534 0.073187 -0.281829 -0.208224 -0.161370 -0.177174 -0.071410 0.057176 -0.027550 -0.034766 -0.128341 -0.181982 -0.037105 0.165137 0.236350 0.189163 0.037002 0.420225 -0.140679 -0.006898 0.145976 -0.135014 0.024678 0.223727 0.338693 -0.016943 0.250873 -0.013893 -0.295546
burn 0.159470 -0.303115 0.213474 -0.195699 0.092049 -0.020980 0.238965 -0.028744 -0.017092 -0.009730 0.335816 0.172650 -0.289784 -0.324012 -0.008758 0.457662 0.345896 0.039221 0.373909 0.226390 0.114704 0.265253 0.095436 -0.379033 -0.282163 -0.224196 -0.257818 -0.100984 0.066359 -0.028174 -0.024800 -0.167042 -0.237349 -0.039115 0.204770 0.303961 0.258971 0.048258 0.571214 -0.185904 -0.030013 0.200500 -0.178060 0.031184 0.304784 0.463585 -0.014326 0.350336 -0.017873 -0.414748
cause 0.249073 -0.471214 0.324598 -0.321810 0.123082 -0.011198 0.394551 -0.061011 -0.031808 -0.004587 0.527729 0.285498 -0.436209 -0.510124 0.008740 0.713633 0.550519 0.063909 0.590407 0.361762 0.187208 0.418447 0.129588 -0.597921 -0.439446 -0.350723 -0.383097 -0.153566 0.119808 -0.044019 -0.052853 -0.274418 -0.392527 -0.060394 0.327662 0.476683 0.404446 0.071587 0.902275 -0.312808 -0.023940 0.304194 -0.272922 0.045876 0.476272 0.733886 -0.030590 0.552150 -0.006326 -0.641288
two 0.199016 -0.358797 0.246230 -0.231019 0.101769 -0.008797 0.283269 -0.041588 -0.021004 -0.002490 0.397534 0.203553 -0.329954 -0.381959 -0.007211 0.526675 0.411497 0.041003 0.441042 0.275635 0.134139 0.309359 0.102290 -0.445790 -0.314101 -0.262996 -0.287846 -0.113678 0.092181 -0.036290 -0.038226 -0.206358 -0.294988 -0.047135 0.255551 0.361955 0.314866 0.066702 0.674728 -0.230999 -0.018354 0.229748 -0.199198 0.025833 0.362326 0.542566 -0.030509 0.404434 -0.013849 -0.475808
touch 0.158261 -0.282426 0.199538 -0.191100 0.071972 -0.020538 0.223554 -0.023927 -0.013849 0.002146 0.322500 0.160320 -0.274044 -0.304311 0.004519 0.437055 0.325269 0.046331 0.357985 0.222728 0.114250 0.242073 0.086214 -0.361750 -0.255896 -0.214435 -0.243960 -0.092504 0.065496 -0.026283 -0.024161 -0.165613 -0.241614 -0.037898 0.203918 0.295690 0.254785 0.053693 0.550559 -0.195141 -0.013183 0.182153 -0.173844 0.027710 0.291932 0.438907 -0.009040 0.339077 -0.009595 -0.394988
months 0.204192 -0.370889 0.259100 -0.238067 0.093868 -0.016278 0.308111 -0.033938 -0.019895 -0.002092 0.410551 0.211223 -0.335197 -0.403644 -0.002127 0.541328 0.420482 0.040791 0.461818 0.288109 0.155036 0.315014 0.097575 -0.462287 -0.348697 -0.265317 -0.302929 -0.113376 0.095805 -0.049882 -0.033389 -0.216138 -0.296518 -0.051581 0.268867 0.376662 0.310052 0.049477 0.697626 -0.242097 -0.016897 0.241958 -0.206094 0.027185 0.368090 0.573276 -0.018884 0.428494 -0.017800 -0.493308
minutes 0.151629 -0.278772 0.200647 -0.200924 0.076329 -0.017330 0.234912 -0.024125 -0.020758 0.000087 0.314709 0.174194 -0.271340 -0.322450 0.008494 0.432566 0.329932 0.043203 0.361587 0.231955 0.114455 0.251255 0.087837 -0.360955 -0.270525 -0.214942 -0.234083 -0.093232 0.068300 -0.025334 -0.024969 -0.158739 -0.238812 -0.046001 0.209894 0.288763 0.250911 0.054618 0.552675 -0.185595 -0.025965 0.194943 -0.173416 0.024241 0.294245 0.448135 -0.009208 0.330745 -0.007226 -0.382381
anything 0.177615 -0.329169 0.226798 -0.207876 0.082222 -0.011154 0.263272 -0.045840 -0.020650 -0.007034 0.367309 0.201028 -0.309616 -0.359419 -0.011096 0.474683 0.380168 0.042093 0.411906 0.251620 0.123970 0.277623 0.086069 -0.402108 -0.292122 -0.232318 -0.265108 -0.108111 0.077283 -0.040162 -0.043664 -0.179964 -0.265530 -0.039532 0.220011 0.337518 0.290246 0.045766 0.606478 -0.205356 -0.018837 0.218806 -0.182252 0.034908 0.329101 0.502180 -0.012637 0.382110 -0.016871 -0.442411
zinc 0.187152 -0.338363 0.239078 -0.229712 0.090970 -0.005049 0.289549 -0.049227 -0.027619 -0.005446 0.390043 0.211777 -0.324821 -0.381068 -0.000666 0.518185 0.407642 0.049640 0.438971 0.264273 0.142519 0.291703 0.104566 -0.437676 -0.322845 -0.253036 -0.293181 -0.104096 0.073982 -0.038543 -0.044925 -0.209663 -0.276941 -0.053039 0.239182 0.355367 0.297747 0.052023 0.665114 -0.219727 -0.015389 0.234206 -0.207734 0.026157 0.341896 0.526984 -0.029629 0.404283 -0.019206 -0.479827
left 0.109720 -0.203361 0.132209 -0.138746 0.067342 -0.010441 0.157078 -0.031379 -0.018394 -0.012371 0.217431 0.130054 -0.184643 -0.223501 -0.003326 0.293981 0.234272 0.022109 0.251081 0.156677 0.082492 0.183180 0.064556 -0.248820 -0.187950 -0.153749 -0.160826 -0.067076 0.050696 -0.014800 -0.019733 -0.113938 -0.172440 -0.018398 0.147544 0.207428 0.185471 0.035017 0.395903 -0.134116 -0.010679 0.137413 -0.120712 0.012349 0.208354 0.319610 -0.004615 0.240296 -0.009746 -0.277356
scent 0.160347 -0.297246 0.201514 -0.203763 0.087800 -0.014608 0.236177 -0.034124 -0.017950 -0.005046 0.332334 0.179628 -0.283900 -0.319889 -0.005130 0.450183 0.347002 0.036041 0.375172 0.225449 0.126815 0.259138 0.092272 -0.369022 -0.272443 -0.220350 -0.244084 -0.088720 0.075364 -0.034855 -0.027525 -0.163890 -0.235854 -0.044999 0.212979 0.297342 0.261180 0.056755 0.569398 -0.202907 -0.026404 0.197522 -0.162294 0.029233 0.307261 0.463748 -0.011328 0.352877 -0.015381 -0.392593
might 0.123062 -0.231384 0.163070 -0.150179 0.060053 -0.003712 0.189198 -0.031700 -0.008978 -0.015291 0.246462 0.140202 -0.203805 -0.242680 -0.009481 0.340468 0.262034 0.022629 0.283544 0.173280 0.087640 0.200999 0.057338 -0.282618 -0.196406 -0.153423 -0.180484 -0.069684 0.049369 -0.029001 -0.034536 -0.128543 -0.186459 -0.033922 0.165817 0.226658 0.195935 0.033785 0.422170 -0.139447 -0.014531 0.149420 -0.136188 0.010907 0.219959 0.351176 -0.017985 0.253941 0.002182 -0.305177
fine 0.159822 -0.287037 0.206775 -0.201340 0.091022 -0.003396 0.238031 -0.030544 -0.016201 -0.009949 0.313637 0.164251 -0.261313 -0.310703 -0.001288 0.436540 0.346768 0.047501 0.358096 0.221523 0.117813 0.247291 0.092742 -0.363865 -0.256425 -0.218426 -0.239906 -0.098194 0.076582 -0.036660 -0.023727 -0.173341 -0.229219 -0.034711 0.211031 0.299356 0.260101 0.043448 0.559517 -0.185865 -0.021925 0.196393 -0.166873 0.017071 0.297332 0.454577 -0.025098 0.337749 -0.017220 -0.396285
reviews 0.299280 -0.548473 0.371335 -0.365102 0.161130 -0.023538 0.458683 -0.072286 -0.043335 -0.003025 0.610343 0.327686 -0.514177 -0.610171 0.009850 0.819730 0.641115 0.073469 0.699773 0.432429 0.219780 0.482821 0.158033 -0.675706 -0.507582 -0.399077 -0.445653 -0.167733 0.137195 -0.058370 -0.064219 -0.314225 -0.447963 -0.063269 0.391152 0.573287 0.476348 0.097843 1.064270 -0.353632 -0.041430 0.375061 -0.311695 0.042834 0.552368 0.844763 -0.043360 0.649690 -0.017615 -0.745167
facial 0.158908 -0.271061 0.194445 -0.183638 0.075461 -0.020703 0.233963 -0.036473 -0.027373 -0.003284 0.307689 0.156174 -0.255035 -0.298284 0.006432 0.412961 0.312535 0.042978 0.343858 0.217796 0.118961 0.230199 0.075154 -0.346563 -0.253235 -0.192454 -0.230870 -0.077862 0.067460 -0.032516 -0.035900 -0.167643 -0.229783 -0.035318 0.195112 0.282418 0.238910 0.053646 0.518544 -0.183498 -0.026406 0.174521 -0.167837 0.030254 0.282526 0.424018 -0.013618 0.324798 -0.002802 -0.370860
end 0.160995 -0.304906 0.208409 -0.211545 0.090386 -0.023058 0.249673 -0.038555 -0.018285 0.000794 0.356615 0.191033 -0.292495 -0.338803 -0.004495 0.463191 0.374842 0.045570 0.397021 0.248221 0.130138 0.273380 0.088893 -0.391707 -0.297280 -0.220584 -0.262976 -0.108278 0.073448 -0.043496 -0.034886 -0.186745 -0.260022 -0.046401 0.216751 0.324802 0.274234 0.042540 0.610310 -0.202079 -0.023868 0.199485 -0.185939 0.032428 0.311092 0.491059 -0.020690 0.366764 -0.003936 -0.431438
dries 0.121563 -0.215411 0.155111 -0.148290 0.061702 -0.005761 0.176642 -0.027583 -0.006440 -0.002213 0.235060 0.135765 -0.202856 -0.231209 0.008792 0.325715 0.246389 0.029087 0.256816 0.162573 0.090496 0.185612 0.069332 -0.262379 -0.186476 -0.152152 -0.169939 -0.072834 0.059074 -0.014967 -0.026163 -0.128990 -0.178919 -0.025418 0.154160 0.212926 0.195182 0.038246 0.412911 -0.128618 -0.019334 0.145384 -0.130141 0.027703 0.205123 0.331255 -0.019145 0.253973 -0.002561 -0.291580
sheer 0.143866 -0.272238 0.196164 -0.187782 0.085029 -0.014029 0.228387 -0.035694 -0.013819 0.003177 0.310328 0.179498 -0.266227 -0.313572 -0.003366 0.427345 0.320723 0.037779 0.352795 0.220541 0.115774 0.253081 0.091078 -0.344346 -0.262533 -0.210062 -0.242639 -0.086856 0.061182 -0.036893 -0.039996 -0.156658 -0.224210 -0.028245 0.199298 0.287802 0.241936 0.047927 0.532353 -0.177655 -0.026588 0.194694 -0.159070 0.032984 0.274705 0.442366 -0.013736 0.332526 0.000462 -0.393110
won 0.185804 -0.333925 0.235247 -0.224655 0.094284 -0.007540 0.262891 -0.028962 -0.029799 -0.006057 0.368463 0.203294 -0.307605 -0.366562 0.007960 0.485317 0.383905 0.051548 0.411855 0.248686 0.137364 0.275587 0.092968 -0.415660 -0.308352 -0.236519 -0.273860 -0.104160 0.074494 -0.039380 -0.037916 -0.179247 -0.269341 -0.040023 0.237471 0.346707 0.282889 0.054838 0.632910 -0.206148 -0.033135 0.212396 -0.189322 0.034863 0.338363 0.504684 -0.020519 0.386085 -0.009809 -0.452846
least 0.220633 -0.378119 0.267433 -0.265735 0.116975 -0.008914 0.322718 -0.049068 -0.032395 -0.004265 0.438257 0.240674 -0.364174 -0.431375 0.008462 0.585602 0.445088 0.059223 0.480141 0.293977 0.155468 0.327569 0.106875 -0.481770 -0.364367 -0.291824 -0.320805 -0.126628 0.104767 -0.042278 -0.040847 -0.225287 -0.320796 -0.039947 0.269518 0.393477 0.329955 0.070268 0.741727 -0.251493 -0.028146 0.248775 -0.226894 0.029505 0.378717 0.603096 -0.024359 0.457259 -0.020892 -0.535063
probably 0.168525 -0.293043 0.213060 -0.193704 0.079605 -0.004817 0.235445 -0.030862 -0.027582 -0.012932 0.335895 0.178808 -0.268596 -0.327079 0.008429 0.437432 0.336819 0.049601 0.379099 0.223960 0.110883 0.257860 0.083553 -0.362215 -0.261365 -0.213259 -0.249516 -0.093395 0.068121 -0.029148 -0.028663 -0.166938 -0.233581 -0.036010 0.218270 0.308175 0.258795 0.057906 0.574818 -0.191704 -0.014225 0.200139 -0.176343 0.019035 0.287035 0.447377 -0.026745 0.335116 -0.018803 -0.400727
HG 0.118499 -0.223140 0.164049 -0.150144 0.070011 -0.002894 0.189843 -0.023977 -0.005442 -0.000522 0.245903 0.136439 -0.208708 -0.249534 0.006726 0.343732 0.267593 0.039129 0.294133 0.186259 0.084552 0.201588 0.067937 -0.291738 -0.214126 -0.176083 -0.191941 -0.069069 0.047867 -0.033634 -0.034554 -0.122894 -0.193120 -0.027560 0.165146 0.234084 0.205809 0.031928 0.436584 -0.149871 -0.021046 0.144289 -0.123983 0.027843 0.225369 0.355643 -0.008880 0.263501 -0.002688 -0.309514
went 0.089364 -0.172757 0.130529 -0.123593 0.044775 -0.010380 0.150913 -0.026635 -0.007081 -0.012448 0.197067 0.104008 -0.172275 -0.201024 0.000898 0.267668 0.205618 0.015252 0.219496 0.144291 0.066013 0.143821 0.043209 -0.210363 -0.154961 -0.134827 -0.142604 -0.061458 0.050579 -0.010957 -0.019866 -0.104092 -0.139860 -0.031096 0.119647 0.171656 0.146436 0.027275 0.346785 -0.114119 -0.020319 0.110956 -0.100115 0.006540 0.169313 0.262487 -0.010616 0.198812 -0.006721 -0.237840
away 0.160338 -0.280694 0.195049 -0.195500 0.081769 -0.021688 0.242240 -0.036344 -0.019770 -0.014787 0.314872 0.171428 -0.266821 -0.319208 -0.008220 0.433207 0.334263 0.034368 0.357850 0.222498 0.120756 0.246609 0.087908 -0.367158 -0.274479 -0.221046 -0.242354 -0.084365 0.065050 -0.041064 -0.032550 -0.163512 -0.239332 -0.043677 0.197026 0.304102 0.251775 0.045545 0.563818 -0.194087 -0.015651 0.185424 -0.172185 0.027605 0.292899 0.457354 -0.016651 0.338738 -0.004823 -0.390762
